tree
version=v4
num_class=1
num_tree_per_iteration=1
label_index=0
max_feature_idx=38
objective=binary sigmoid:1
feature_names=signal_ret brick_red_len brick_green_len_prev rebound_ratio red_len_vs_1d red_len_vs_3d red_len_vs_5d red_len_vs_10d green_len_prev_vs_1d green_len_prev_vs_3d green_len_prev_vs_5d green_len_prev_vs_10d trend_spread close_to_trend close_to_long trend_slope_3 trend_slope_5 trend_slope_10 ma10_slope_3 ma10_slope_5 ma10_slope_10 ma20_slope_3 ma20_slope_5 ma20_slope_10 signal_vs_ma5 ret1 ret5 ret10 RSI14 MACD_DIF MACD_DEA MACD_hist KDJ_K KDJ_D KDJ_J body_ratio close_location upper_shadow_pct lower_shadow_pct
feature_infos=[-0.029988465974625102:2.5357142857142851] [0.13759413516588381:20.811670581459666] [0.00032618362789089999:14.290909898487255] [0.66123824516995566:26688.177384777679] none [0:65.455511316351561] [0:207.95775843184524] [0:62.28595326349307] [0:427.15961996748814] [0:16.297084616681371] [0:112.19467842330089] [0:2.5349000428335486] [0.00022187914526139999:0.2602390276152502] [-0.21853500341141679:0.86254992536853459] [-0.1588744298974179:0.93338618009670637] [-1.252352691110562:1.3353254982488481] [-1.2143093974122261:1.3180829963828471] [-1.1563523019567028:1.6925740361308237] [-3.3525000000000178:1.7515000000000067] [-2.5284000000000142:1.3994999999999993] [-2.1159575757575761:1.7612424242424265] [-1.4439999999999995:2.3077499999999969] [-1.399349999999997:2.2007500000000002] [-1.1450969696969715:2.3480212121212118] [0.28623591127328107:4.806055559483295] [-0.026099768469795701:1.3023255813953489] [-0.19569892473118281:48.5] [-0.36141304347826081:13.142857142857141] [6.2015503875969813:95.017793594306141] [-3.586662058315909:9.7465917233575539] [-2.5609215852306879:12.862359924261064] [-9.4951066168893163:3.4798414394466284] [7.4914219197602385:94.171849284323713] [6.9368796034429563:91.434909452017166] [-11.045250295932243:108.5655180324801] [0:1] [0:1] [0:0.85714285714285987] [0:1]
tree_sizes=2043 2304 2445 2348 2343 2344 2450 2557 2345 2246 2253 2330 2343 2345 2136 2351 2346 2353 2360 2352 2554 2461 2566 2350 2567 2460 2463 2346 2477 2360 2463 2363 2670 2666

Tree=0
num_leaves=20
num_cat=0
split_feature=0 0 12 35 2 14 14 6 30 30 37 30 7 38 15 5 5 3 5
split_gain=50.5168 16.3682 10.2581 8.00528 7.80006 6.28685 9.24146 11.3058 6.05168 9.60746 5.45922 4.84848 4.6791 6.234 5.05646 2.30476 2.0964 2.09177 1.96599
threshold=0.032487010659321462 0.0072279490647884003 0.10671119148161406 0.11111111111111381 7.6563293998282953 0.11774409495358701 0.015555930823135552 0.35412285341957067 0.41633786273167578 0.11581910812875601 0.36363636363636248 0.67185229554185144 1.0933762645076766 0.051597363083165357 0.046011831728686912 1.2444385704172398 0.42679508745092765 3.1463273974920178 0.57500716292382381
decision_type=2 2 2 2 2 2 2 2 2 2 2 2 2 2 2 2 2 2 2
left_child=1 3 10 -1 5 6 7 -3 9 16 12 -10 13 -2 -15 -14 -8 -5 -11
right_child=2 4 -4 17 -6 -7 8 -9 11 18 -12 -13 15 14 -16 -17 -18 -19 -20
leaf_value=-0.022222222222222213 0.0034482758620689642 0 -0.012500000000000001 -0.10000000000000003 0.050000000000000003 -0.058620689655172413 0.0047619047619047597 -0.086206896551724144 0.06666666666666668 -0.021428571428571432 0 0 0.094285714285714292 0.083783783783783761 0.029032258064516134 0.052380952380952389 0.049999999999999989 -0.061538461538461535 -0.0619047619047619
leaf_weight=9.0000000000000018 7.2500000000000027 7.9999999999999982 7.9999999999999991 7.7499999999999982 4.9999999999999991 7.2499999999999991 5.2500000000000018 7.25 5.9999999999999982 6.9999999999999982 4.9999999999999991 5 8.7499999999999982 9.2500000000000018 7.7499999999999991 5.2499999999999991 5 6.5 5.25
leaf_count=36 29 32 32 31 20 29 21 29 24 28 20 20 35 37 31 21 20 26 21
internal_value=0.000369004 -0.0234421 0.0395122 -0.0591398 -0.00983607 -0.0151786 -0.00871795 -0.0409836 0.00597015 -0.00888889 0.0491329 0.0363636 0.0555556 0.042268 0.0588235 0.0785714 0.0268293 -0.0824561 -0.0387755
internal_weight=135.5 84.25 51.25 23.25 61 56 48.75 15.25 33.5 22.5 43.25 11 38.25 24.25 17 14 10.25 14.25 12.25
internal_count=542 337 205 93 244 224 195 61 134 90 173 44 153 97 68 56 41 57 49
is_linear=0
shrinkage=0.05


Tree=1
num_leaves=21
num_cat=0
split_feature=0 0 12 2 35 14 6 14 27 33 8 36 25 7 29 30 7 24 30 2
split_gain=45.6303 14.8039 9.27083 6.97966 6.82078 5.17329 10.2322 8.31787 6.9407 7.29478 5.94542 4.93716 4.81373 4.24055 5.82072 6.60864 4.15889 2.63862 1.91004 0.122858
threshold=0.032487010659321462 0.0073466971797031015 0.10671119148161406 7.6563293998282953 0.11111111111111381 0.015555930823135552 0.35412285341957067 0.11863752728134941 0.068790016859462261 42.424834877345653 0.46067491240611247 0.64770523594052987 0.018044640730878303 1.0933762645076766 0.12720427926219949 0.54872643218787365 0.76488221326263417 0.90721120262491661 0.14000289831578475 1.3997339990814341
decision_type=2 2 2 2 2 2 2 2 2 2 2 2 2 2 2 2 2 2 2 2
left_child=1 4 11 5 -1 6 -3 8 9 16 12 -2 -11 14 -13 -16 -7 19 -15 -6
right_child=2 3 -4 -5 17 7 -8 -9 -10 10 -12 13 -14 18 15 -17 -18 -19 -20 -21
leaf_value=-0.021113762189371364 0 0 -0.011875473167593764 0.047530212352017258 -0.096579739580545929 -0.010426219797726489 -0.082051476878888877 -0.054259248983615317 0.055704690940295634 0.029607927095484626 -0.070808084338335561 0.073555610002664931 -0.039790263602084604 0.052627434853549759 -0.00773459829876217 0.05726087708970759 0.049292762687484365 -0.046512863009551986 0.090198530623305226 -0.085485633539273242
leaf_weight=8.9988890290260333 4.9999999999999991 7.9999999999999982 7.9996876716613761 4.9968764185905448 4.993353992700575 4.9981917291879672 7.2365468144416809 6.9939897656440726 5.7467410564422599 4.9978873878717405 5.2485208213329306 8.4894754290580767 4.9971796423196793 5.7403069585561743 8.4946432113647443 7.2480129152536383 6.9960189461708069 4.992070645093917 8.2366759926080686 4.9886831194162369
leaf_count=36 20 32 32 20 20 20 29 28 23 20 21 34 20 23 34 29 28 20 33 20
internal_value=0.000350827 -0.0222879 0.0375679 -0.0090579 -0.0555172 -0.014179 -0.0389701 -0.00473072 0.00577124 -0.00476393 -0.0277166 0.0467218 -0.00508871 0.0528357 0.0401852 0.0221897 0.0244068 -0.0761924 0.0747682 -0.0910353
internal_weight=135.394 84.1849 51.2088 60.212 23.973 55.2151 15.2365 39.9785 32.9845 27.2378 15.2436 43.2091 9.99507 38.2091 24.2321 15.7427 11.9942 14.9741 13.977 9.98204
internal_count=542 337 205 241 96 221 61 160 132 109 61 173 40 153 97 63 48 60 56 40
is_linear=0
shrinkage=0.05


Tree=2
num_leaves=22
num_cat=0
split_feature=25 25 36 12 15 35 6 34 5 7 2 32 7 12 24 35 1 13 24 35 18
split_gain=35.5572 15.8532 9.70113 8.44775 8.66771 7.28701 5.5502 5.16344 5.03482 6.82054 4.98379 4.44454 4.33252 5.515 4.02473 2.82454 2.54658 2.50139 1.05192 0.53192 0.45698
threshold=0.037809530022129806 0.0082482376114451014 0.64770523594052987 0.023630200176083152 0.013202761540698752 0.60000000000000298 0.27102769456954906 31.777753879198382 0.42679508745092765 0.69667682899668948 4.1124972768733707 21.606767570452657 1.2174573360572396 0.061716118372230906 1.1030295567460731 0.12758321568894224 7.7440118245094576 0.0075955386603629013 1.8367198668021005 0.30542458808618467 0.029500000000000054
decision_type=2 2 2 2 2 2 2 2 2 2 2 2 2 2 2 2 2 2 2 2 2
left_child=1 7 -2 5 11 6 -3 15 9 -6 12 -5 13 -4 -12 -1 -13 -8 20 -17 -16
right_child=2 3 10 4 8 -7 17 -9 -10 -11 14 16 -14 -15 18 19 -18 -19 -20 -21 -22
leaf_value=-0.040152048338754159 -0.014222388901106817 -0.0049036387996654173 0.039252351095264669 0.0054099649402207127 0.050628332678336468 0.0085788599877396482 -0.093709735859509369 -0.016512249913911408 -0.042869239044303606 -0.029318105299976024 0.029103680068920286 0.029836562898044823 0.064929554671471532 -0.027712327024180156 0.074370689087264949 -0.072980421468451323 0.078047298850949978 -0.046946770726161435 0.05740411082381397 -0.09533791333973346 0.095788349707409334
leaf_weight=5.2442958205938366 8.2430359870195371 5.2435490787029329 6.9799572825431841 8.9832466542720812 4.9890313595533389 8.7285486012697202 4.9702484309673292 6.2253912687301627 8.9816330820322019 5.7341215312480927 6.7284807711839703 5.7425365298986417 4.9775336384773246 5.4952891767024994 4.9769861847162229 4.9697151482105237 5.2371671050786972 6.7343647181987762 5.2340957075357428 5.7250680178403854 4.9851678907871246
leaf_count=21 33 21 28 36 20 35 20 25 36 23 27 23 20 22 20 20 21 27 21 23 20
internal_value=0.00033368 -0.0185867 0.0351023 -0.00619224 0.00827172 -0.0285375 -0.0476529 -0.0551275 -0.0152533 0.0078776 0.0454276 0.0314925 0.0254906 0.00975472 0.0612981 -0.0702097 0.0528324 -0.0668042 0.075553 -0.0849487 0.0850883
internal_weight=135.129 87.5089 47.6205 65.3444 39.6677 25.6767 16.9482 22.1645 19.7048 10.7232 39.3775 19.963 17.4528 12.4752 21.9247 15.9391 10.9797 11.7046 15.1962 10.6948 9.96215
internal_count=542 351 191 262 159 103 68 89 79 43 158 80 70 50 88 64 44 47 61 43 40
is_linear=0
shrinkage=0.05


Tree=3
num_leaves=21
num_cat=0
split_feature=0 0 12 35 2 11 36 29 18 18 27 36 3 21 23 0 32 24 28 3
split_gain=37.6676 12.641 7.93895 6.32 6.26923 4.12839 7.20069 3.81119 5.38462 6.94635 5.20802 3.86514 5.10715 3.64257 6.21923 3.20159 2.89947 2.46011 2.32566 1.94718
threshold=0.032487010659321462 0.0072279490647884003 0.10671119148161406 0.11111111111111381 7.6563293998282953 0.50017131637901746 0.76155366372757693 -0.31851751448470716 -0.12449999999999838 -0.021250000000000796 0.0077925853843780002 0.8333333333333337 1.7670903669163478 0.015500000000001651 0.064109090909091768 0.020821924059875856 55.864674710960436 0.94459272803815886 54.315863020051502 3.1463273974920178
decision_type=2 2 2 2 2 2 2 2 2 2 2 2 2 2 2 2 2 2 2 2
left_child=1 3 5 -1 7 6 -2 -3 -9 17 -11 12 -12 -7 -15 -14 18 -10 -8 -5
right_child=2 4 -4 19 -6 13 16 8 9 10 11 -13 15 14 -16 -17 -18 -19 -20 -21
leaf_value=-0.019043861669024758 -0.0051231545145219749 -0.054914028003088713 -0.011531060254238105 -0.08977200124919929 0.045382429746378239 0.091755846583744388 0.043410634795946569 0.030942022485162063 -0.02830878912346086 0.036891745478188201 -0.032178558919986451 -0.042398805556209389 0.046623511010046872 0.0039598364034323782 0.083082647810191562 -0.0081580032301933666 0.025302341783422458 -0.07634361587850691 0.091292903332387501 -0.052445956259372976
leaf_weight=8.9880468994379061 9.2282394170761126 4.9706706404685965 7.9954785853624335 7.6438277959823591 4.9873397052288047 6.4437041431665447 5.2004248499870318 7.2237724214792243 5.7368018776178342 6.2280820459127417 7.7233319133520189 8.2229736894369108 5.7359637469053251 4.97143407166004 4.9627813994884491 4.9849842339754105 7.2157427221536627 4.9789025485515594 4.9494751840829849 6.4358248710632324
leaf_count=36 37 20 32 31 20 26 21 29 23 25 31 33 23 20 20 20 29 20 20 26
internal_value=0.000317476 -0.0202856 0.0342173 -0.0517998 -0.00832755 0.0427294 0.0305673 -0.0131276 -0.0090417 -0.0156646 -0.00427544 -0.0138899 -0.0011799 0.0624777 0.0434868 0.0211514 0.0495335 -0.0506275 0.0667598 -0.0727102
internal_weight=134.828 83.8605 50.9673 23.0677 60.7928 42.9718 26.5939 55.8055 50.8348 43.611 32.8953 26.6673 18.4443 16.3779 9.93422 10.7209 17.3656 10.7157 10.1499 14.0797
internal_count=542 337 205 93 244 173 107 224 204 175 132 107 74 66 40 43 70 43 41 57
is_linear=0
shrinkage=0.05


Tree=4
num_leaves=21
num_cat=0
split_feature=0 25 12 12 26 30 13 2 20 37 7 1 24 6 30 29 14 24 0 3
split_gain=34.1442 12.2714 6.53849 5.57398 8.83967 8.16159 6.48101 5.57707 5.32497 5.0801 4.71944 7.90536 4.37676 4.89585 3.93011 5.29619 3.25407 2.68004 3.05771 1.49439
threshold=0.030267740331344103 0.0082482376114451014 0.10671119148161406 0.016818116386405752 -0.011365542129992049 0.13814280545571408 0.015286701958966102 1.8142955265948759 -0.035236363636363045 0.3653388946819604 0.68462618301856348 7.8957777206841522 0.93103319460109979 0.6482021369846388 0.056325284756516658 0.20248214925883423 0.13281094077883634 0.8373220882486927 0.0051527645619590511 1.9587746386791411
decision_type=2 2 2 2 2 2 2 2 2 2 2 2 2 2 2 2 2 2 2 2
left_child=1 8 9 6 10 -6 -3 -7 -1 12 -5 -12 -2 19 -15 -16 -17 18 -10 -14
right_child=2 3 -4 4 5 7 -8 -9 17 -11 11 -13 13 14 15 16 -18 -19 -20 -21
leaf_value=-0.090821087564120703 0.0074866067541949008 -0.060436986297904532 -0.010956139992913224 0.061536435955060358 0.024219084547401317 -0.0052236367550443381 0.00087838489044355966 -0.066510619035975369 -0.078596335153752681 -0.0096299985016259169 -0.025843263050851065 0.056651434722841038 0.090680320372137801 0.072375541301686871 -0.01612110888670169 0.071605635466401571 0.016254608750747111 -0.0074157173751769256 -0.023560830426003692 0.05632814370403573
leaf_weight=6.4151401519775417 6.9382724314928046 9.3836195319890994 7.9943143874406806 6.4851321130991009 7.2161705195903805 6.4724972993135443 7.9701836407184592 8.7035529762506467 5.1407641768455488 4.9978030472993842 6.9646114557981473 4.981084331870079 7.1586734205484372 5.6603073626756695 5.4541118592023876 5.420278072357176 5.2053138464689255 5.2068393677473059 4.9576663672924042 5.6761074662208557
leaf_count=26 28 38 32 26 29 26 32 35 21 20 28 20 29 23 22 22 21 21 20 23
internal_value=0.000302945 -0.0205121 0.030815 -0.00853892 0.00155181 -0.0195568 -0.0322763 -0.0403721 -0.0525816 0.0379947 0.0271973 0.00855516 0.0437283 0.051001 0.0365443 0.0239312 0.04449 -0.0365537 -0.0515775 0.0754883
internal_weight=134.402 79.8973 54.5052 58.1769 40.823 22.3922 17.3538 15.1761 21.7204 46.5109 18.4308 11.9457 41.5131 34.5748 21.74 16.0797 10.6256 15.3053 10.0984 12.8348
internal_count=542 322 220 234 164 90 70 61 88 188 74 48 168 140 88 65 43 62 41 52
is_linear=0
shrinkage=0.05


Tree=5
num_leaves=21
num_cat=0
split_feature=25 35 25 19 21 12 3 1 17 23 35 7 12 24 6 35 6 35 38 36
split_gain=26.1015 9.85417 9.84416 6.53163 11.4908 6.10695 4.88691 7.89373 4.62029 5.66775 5.1462 4.18555 4.06984 6.11337 5.38008 6.26037 5.19495 4.0168 2.82924 2.01947
threshold=0.037809530022129806 0.34782608695652178 0.0060699399000965007 -0.12100000000000063 -0.085999999999999285 0.074610925835253708 2.9718170408696576 10.992988874498154 0.014199484019641752 0.22294090909090877 0.63106258148630878 1.2211249060734584 0.023630200176083152 1.1030295567460731 0.27102769456954906 0.56459302985582849 0.93919435862723899 0.42661448140899916 0.3071794871794849 0.69565217391304346
decision_type=2 2 2 2 2 2 2 2 2 2 2 2 2 2 2 2 2 2 2 2
left_child=2 -2 18 4 -4 12 7 8 -3 10 -10 -8 14 16 -5 19 17 -14 -1 -16
right_child=1 6 3 5 -6 -7 11 -9 9 -11 -12 -13 13 -15 15 -17 -18 -19 -20 -21
leaf_value=-0.031575156831667922 -0.038516687803389106 0.067098131483568982 -0.030831910052676353 0.012515042060443973 0.06072768527587441 -0.068708373303288259 -0.0096105673558245178 0.087951732069588742 0.029348873894588668 0.056369679723930366 -0.040940083269175184 0.044836277478361532 0.030982000134605021 -0.031702925018207616 -0.046099231546435471 -0.0086191310124749954 0.05960086251774506 -0.02607812998314768 -0.074982962578492213 -0.090351445771982286
leaf_weight=6.8669294267892829 5.2233355343341819 6.1411950141191545 6.1873516440391541 6.2073805630207088 7.6803899854421598 5.4502198696136466 9.4405242353677732 8.0661162585020048 5.2113864719867724 5.6643810868263236 5.2048927694559097 5.637692689895629 5.7087239027023369 9.6805196106433851 5.4222193509340304 8.1911878138780576 5.2198289781808844 6.7089962810277939 8.2802296876907331 4.91521255671978
leaf_count=28 21 25 25 25 31 22 38 33 21 23 21 23 23 39 22 33 21 27 34 20
internal_value=-0.00201212 0.0265175 -0.018694 -0.0109243 0.0198767 -0.0183522 0.0340054 0.0455841 0.0302055 0.0161162 -0.00577369 0.0107469 -0.0130798 0.000223849 -0.0277722 -0.041269 0.0177471 0.000153781 -0.0553041 -0.0671401
internal_weight=137.109 50.5895 86.5192 71.372 13.8677 57.5043 45.3662 30.288 22.2219 16.0807 10.4163 15.0782 52.0541 27.3181 24.736 18.5286 17.6375 12.4177 15.1472 10.3374
internal_count=555 205 350 288 56 232 184 123 90 65 42 61 210 110 100 75 71 50 62 42
is_linear=0
shrinkage=0.05


Tree=6
num_leaves=22
num_cat=0
split_feature=0 0 35 14 22 21 13 2 38 36 0 0 0 27 38 3 9 9 35 2 1
split_gain=25.2666 12.3822 6.50787 6.47947 8.77562 7.02469 6.52318 6.36954 5.73098 5.46057 5.09031 4.82766 6.50537 4.76929 5.44324 5.8729 4.43998 4.1378 4.07421 3.77989 1.51281
threshold=0.041809636026983905 0.0095318261984928022 0.32625223613595961 0.11863752728134941 0.023200000000000952 0.051124999999998255 0.079780217305169418 3.4225594879463661 0.051597363083165357 0.7254167994053301 0.0047951248538070515 0.059833947760287561 0.048980407836865254 0.048299848706397308 0.24451019066403709 1.7005486692462732 0.10129922311245027 0.30742390328303437 0.11111111111111381 5.0106797577674707 8.6685290200628717
decision_type=2 2 2 2 2 2 2 2 2 2 2 2 2 2 2 2 2 2 2 2 2
left_child=1 2 9 4 13 -6 -5 8 -2 10 18 12 -9 14 15 -3 -7 -17 -1 -16 -13
right_child=7 3 -4 6 5 16 -8 11 -10 -11 -12 20 -14 -15 19 17 -18 -19 -20 -21 -22
leaf_value=-0.0023884644651834337 -0.033226639448945654 -0.077128161018802488 -0.080939249122120194 -0.07134050311006393 0.060644756143913486 0.038199107320962586 -0.0025774110948256265 0.061885192854657739 0.032637126961292492 -0.071176451663132051 0.029356135254198102 0.050380719310843286 -0.015195754460486445 0.034390761748805648 -0.015091435872671796 -0.040090052474237664 -0.024702941331330761 0.018908123497610591 -0.064690385673890113 0.040664400131266674 0.086519009836011865
leaf_weight=5.4568826705217415 5.4471498131752005 5.8973463624715867 8.0025692880153638 6.4213437736034376 9.6769749373197573 4.9749947637319547 7.4509179592132568 5.8371824175119418 8.3895537853240949 5.3949111402034751 4.900562494993209 4.9215545803308469 5.154322475194931 4.929727539420127 7.8757682889699918 7.4344144612550718 6.432812362909317 4.9510520845651627 5.0548952668905258 4.9504392892122269 7.0361134856939316
leaf_count=22 22 24 33 26 39 20 30 24 34 22 20 20 21 20 32 30 26 20 21 20 29
internal_value=-0.00191856 -0.0149741 -0.0426205 -0.00375533 0.00368838 0.0293097 -0.0344072 0.0335031 0.00670828 -0.0278829 -0.0127284 0.0496585 0.0257391 -0.0113016 -0.0185423 -0.0360602 0.00272892 -0.0165057 -0.0323482 0.00642824 0.0716452
internal_weight=136.591 99.8056 28.8098 70.9958 57.1235 21.0848 13.8723 36.7859 13.8367 20.8073 15.4123 22.9492 10.9915 36.0387 31.109 18.2828 11.4078 12.3855 10.5118 12.8262 11.9577
internal_count=555 405 118 287 231 85 56 150 56 85 63 94 45 146 126 74 46 50 43 52 49
is_linear=0
shrinkage=0.05


Tree=7
num_leaves=23
num_cat=0
split_feature=0 0 37 2 38 11 0 16 28 18 18 13 24 30 34 20 2 0 0 6 0 35
split_gain=22.9305 11.2984 7.73261 5.83734 5.17889 4.55322 5.04507 4.50159 6.26108 6.21452 7.37421 5.48756 6.55176 7.25212 8.48346 5.03802 4.58073 4.46067 5.94173 4.18295 1.05947 0.889842
threshold=0.041809636026983905 0.0095318261984928022 0.33333333333332887 3.4225594879463661 0.051597363083165357 0.08319466998668916 0.0036374017747268007 0.11295831175189867 44.363786606556829 0.085499999999999424 -0.11225000000000314 0.004956314773021251 1.5131062307939673 0.11581910812875601 66.56969453779827 0.37520606060606171 2.5353530883310715 0.059833947760287561 0.048980407836865254 0.4089902667020584 -1.0000000180025095e-35 0.81530214424951353
decision_type=2 2 2 2 2 2 2 2 2 2 2 2 2 2 2 2 2 2 2 2 2 2
left_child=1 2 20 4 -2 -4 -7 8 16 10 -10 -12 13 -13 -15 -9 -3 18 -5 -18 -1 -19
right_child=3 7 5 17 -6 6 -8 15 9 -11 11 12 -14 14 -16 -17 19 21 -20 -21 -22 -23
leaf_value=-0.050516320820740861 -0.0315143389378615 -0.059277985630195623 -0.05614928024147723 0.059396580998138007 0.031105826977694991 -0.03380860244629643 0.035277992694683465 -0.059257140722845374 0.054171720321309569 0.065094491398436524 -0.04500453324451504 0.060615987234214942 -0.043509557219805969 0.031166072758312943 -0.053895219907298092 0.0059581769081868173 0.029089095674948075 0.056568098422559512 -0.014414298672899685 -0.033866701596104463 -0.080215078135681989 0.084167169503664097
leaf_weight=4.7289177775382987 5.4557207673788062 5.902871027588847 5.0600452423095694 5.7791308909654635 8.3631078600883466 5.1673267632722837 5.4082854092121124 6.9207233339548093 6.411649957299228 4.9310751408338538 6.6458947062492433 6.9360038787126603 5.1946549862623206 7.1987520009279233 4.944582611322403 5.1764716804027557 4.9728267788887006 6.5492936670780164 5.1618694812059402 5.6206395328044891 8.2278512567281741 5.2711053639650345
leaf_count=20 22 24 21 24 34 21 22 28 26 20 27 28 21 29 20 21 20 27 21 23 34 22
internal_value=-0.00183105 -0.0142815 -0.0408118 0.0320173 0.00638317 -0.0171419 0.00152174 -0.00357575 0.00214258 0.0123396 0.00537127 -0.00474815 0.00627351 0.0198277 -0.0034696 -0.0313511 -0.0239816 0.0475802 0.0245732 -0.00431374 -0.0693757 0.0688754
internal_weight=136.029 99.4486 28.5924 36.5802 13.8188 15.6357 10.5756 70.8561 58.759 42.2626 37.3315 30.9199 24.274 19.0793 12.1433 12.0972 16.4963 22.7614 10.941 10.5935 12.9568 11.8204
internal_count=555 405 118 150 56 64 43 287 238 171 151 125 98 77 49 49 67 94 45 43 54 49
is_linear=0
shrinkage=0.05


Tree=8
num_leaves=21
num_cat=0
split_feature=0 0 37 14 14 18 38 14 19 26 2 8 38 11 0 0 0 23 1 34
split_gain=20.8282 10.3147 7.15619 5.5599 7.89478 7.08939 6.54481 6.32657 6.15512 10.1517 5.35999 5.12987 4.68217 4.16494 4.5552 4.13393 5.43531 2.2809 1.43115 0.985877
threshold=0.041809636026983905 0.0095318261984928022 0.33333333333332887 0.11863752728134941 0.015555930823135552 -0.13875000000000179 0.20912877473099584 0.17775326878763673 -0.021500000000000245 0.0080350162254048015 3.4225594879463661 0.017328636525705651 0.051597363083165357 0.08319466998668916 0.0036374017747268007 0.059833947760287561 0.048980407836865254 0.041660606060606113 8.6685290200628717 21.949019226194924
decision_type=2 2 2 2 2 2 2 2 2 2 2 2 2 2 2 2 2 2 2 2
left_child=1 2 19 4 6 -6 -3 -5 -7 17 12 -11 -2 -4 -15 16 -12 -10 -17 -1
right_child=10 3 13 7 5 8 -8 -9 9 11 15 -13 -14 14 -16 18 -18 -19 -20 -21
leaf_value=-0.048524962073619358 -0.029908099860514539 -0.056593477490506416 -0.053912114551740088 -0.058217715194952648 0.070672223370288598 -0.032554590282071569 0.004500481985714338 0.011631368569702719 0.083073676491620216 0.020536591459456219 0.057085050847791578 -0.034930147914486863 0.02965656901426051 -0.0322328025884124 0.033436086288885197 0.045570201501511136 -0.013675534637293804 0.035056472142645671 0.081101296186343971 -0.077363823060176806
leaf_weight=4.6688638180494335 5.4611343294382086 8.3021148741245288 5.0078473836183539 8.5959992855787259 5.1471075266599646 7.4225162416696504 9.2879340946674329 5.2046272158622733 4.9543730765581184 9.1488148868083972 5.7141387164592761 7.657559171319007 8.3339543342590314 5.1494076848030073 5.42056505382061 4.8524014055728895 5.1685048192739487 4.9382915049791336 6.8134363293647766 8.1134143173694593
leaf_count=20 22 34 21 35 21 30 38 21 20 37 24 31 34 21 22 20 21 20 29 34
internal_value=-0.00174825 -0.0136305 -0.0391029 -0.00340683 0.00350303 0.0159726 -0.0243345 -0.0318755 0.00772139 0.0189184 0.0306254 -0.00473595 0.00607639 -0.0163515 0.00144396 0.0456445 0.0234787 0.0591041 0.0663221 -0.0668301
internal_weight=135.363 99.0194 28.3601 70.6593 56.8587 39.2687 17.59 13.8006 34.1216 26.699 36.3436 16.8064 13.7951 15.5778 10.57 22.5485 10.8826 9.89266 11.6658 12.7823
internal_count=555 405 118 287 231 159 72 56 138 108 150 68 56 64 43 94 45 40 49 54
is_linear=0
shrinkage=0.05


Tree=9
num_leaves=20
num_cat=0
split_feature=0 0 11 14 14 18 11 8 20 38 13 38 12 21 27 20 28 7 7
split_gain=18.935 9.43237 5.0395 5.03634 7.14829 6.4792 6.09233 6.16253 6.055 5.9557 5.808 4.23775 4.32171 4.23433 6.01133 3.96075 2.44771 2.09696 0.954345
threshold=0.041809636026983905 0.0095318261984928022 0.49072756816017965 0.11863752728134941 0.015555930823135552 -0.13875000000000179 0.37084738177616522 0.78139025270910745 0.010815151515151602 0.20912877473099584 0.079780217305169418 0.1310068649885571 0.064829854075145965 0.065124999999998268 -0.038639694296824546 0.035648484848485255 34.968966181284898 1.0634343197201523 0.56632188373991277
decision_type=2 2 2 2 2 2 2 2 2 2 2 2 2 2 2 2 2 2 2
left_child=1 13 11 4 9 -6 8 -8 -7 -3 -5 12 -2 14 16 -10 -1 -4 -16
right_child=2 3 17 10 5 6 7 -9 15 -11 -12 -13 -14 -15 18 -17 -18 -19 -20
leaf_value=-0.043313828893843498 0.024879010301142059 -0.054094564979736519 0.03746919525788682 -0.065558955724395129 0.067786848343470027 -0.039680046347946502 0.065471934361027023 -0.004425285808094751 0.047341954210221804 0.0042746398354615136 -0.00037465245239133051 0.04254161816403746 -0.029943357149643315 -0.00045544667613345302 -0.081354299704798919 -0.010513773703746544 0.0073204689014309092 0.078669295411514906 -0.052921240459956755
leaf_weight=4.7371978312730825 7.5454050749540347 8.2525933831930178 7.3923656642436963 6.3331708461046201 5.099086418747901 9.1734776645898837 7.1446855515241605 5.6448084861040115 5.1628032177686674 9.2896652966737729 7.4221734702587128 8.9655196219682676 6.8659906387329102 6.0501936972141257 7.7252649366855621 6.9274937212467194 4.8104462474584579 5.3045422434806824 4.7755427956581116
leaf_count=20 31 34 31 26 21 37 29 23 21 38 30 37 28 25 33 28 20 23 20
internal_value=-0.00166963 -0.0130149 0.029324 -0.00324572 0.00333923 0.0152233 0.00735247 0.0346219 -0.00904924 -0.0231846 -0.0303865 0.0155512 -0.00123989 -0.0375085 -0.047676 0.0141918 -0.0178024 0.0546819 -0.0704923
internal_weight=134.622 98.5486 36.0738 70.45 56.6946 39.1524 34.0533 12.7895 21.2638 17.5423 13.7553 23.3769 14.4114 28.0986 22.0485 12.0903 9.54764 12.6969 12.5008
internal_count=555 405 150 287 231 159 138 52 86 72 56 96 59 118 93 49 40 54 53
is_linear=0
shrinkage=0.05


Tree=10
num_leaves=20
num_cat=0
split_feature=25 12 14 36 0 27 9 10 0 32 26 31 14 18 18 20 13 32 31
split_gain=23.7208 11.5602 11.2849 7.07777 5.86333 9.43833 6.71311 4.25565 5.17171 5.34698 6.06901 4.28407 3.05486 5.58087 3.01094 1.99611 1.39866 1.27502 1.65443
threshold=0.021998099195062553 0.0078580317932014018 0.11863752728134941 0.80786401098901151 0.045805791291739513 0.14708321334022637 0.40928433725604024 0.42237453066007175 0.0097829450495749513 59.969581264736412 -0.028700226525938146 -0.044672997651028744 0.043101001388404905 0.039999999999997808 -0.069250000000000936 -0.0038636363636357991 0.11745332633462442 26.174813693239233 -0.04354572161308639
decision_type=2 2 2 2 2 2 2 2 2 2 2 2 2 2 2 2 2 2 2
left_child=7 -2 3 12 5 -4 16 8 11 10 -10 14 -3 -14 -1 -9 -6 -5 -19
right_child=1 2 4 17 6 -7 -8 15 9 -11 -12 -13 13 -15 -16 -17 -18 18 -20
leaf_value=-0.031137367095059484 -0.038140939772017213 -0.0012340422537553211 -0.074244677889965777 0.039505671995510416 0.008016380885930206 0.019370421850319661 0.049585400011653409 -0.026588427107354647 -0.026861165363820216 -0.04387022710991087 0.041159840712053419 -0.004436101847315692 0.062639066203530991 -0.00040220089697010146 -0.081764931799701401 -0.066460482824881803 -0.029829245179885916 0.083641352023520243 0.050735816245993041
leaf_weight=6.4663590192794791 8.2816146463155729 9.042236655950548 5.5913239419460314 4.8468009233474758 4.8463123589754122 5.1930805891752243 8.5718626677989942 5.2660906314849854 5.1328007727861413 4.9223250597715369 9.0806521326303482 6.8416277766227749 8.265308663249014 6.1028751432895652 5.380231872200965 7.7711285203695279 4.9194408804178238 8.5266382098197937 6.9200382083654377
leaf_count=27 34 37 23 20 20 21 36 22 21 20 37 29 34 25 23 32 20 36 29
internal_value=0.00104913 0.0178357 0.0242013 0.040268 8.96927e-05 -0.0291656 0.0172948 -0.0257202 -0.017229 0.00104211 0.0165959 -0.0359376 0.0215339 0.0358623 -0.0541303 -0.0503551 -0.0110481 0.0618795 0.0688998
internal_weight=131.969 81.1075 72.8259 43.7039 29.122 10.7844 18.3376 50.8612 37.824 19.1358 14.2135 18.6882 23.4104 14.3682 11.8466 13.0372 9.76575 20.2935 15.4467
internal_count=546 335 301 181 120 44 76 211 157 78 58 79 96 59 50 54 40 85 65
is_linear=0
shrinkage=0.05


Tree=11
num_leaves=21
num_cat=0
split_feature=0 15 38 9 7 38 3 31 7 3 31 22 30 34 32 3 9 28 22 24
split_gain=19.3216 7.6911 6.00213 8.28854 5.92633 7.54147 6.82389 5.3365 6.58149 6.55906 5.76811 4.96084 7.13671 4.83214 6.85227 4.44796 2.95738 2.46666 2.45009 2.08022
threshold=0.028256340523210102 0.046011831728686912 0.08842144452717611 0.38656302123863712 1.0933762645076766 0.2504125412541286 1.2198634727352202 -0.48876824910388922 1.1634405885608772 2.9718170408696576 -0.88986434465645725 0.022524999999999556 0.20043014910444582 72.153319161311273 36.088951701130291 1.3413839866231971 0.34812942357380633 53.006496957908304 0.11424999999999967 1.2375569810560005
decision_type=2 2 2 2 2 2 2 2 2 2 2 2 2 2 2 2 2 2 2 2
left_child=7 2 3 -2 5 6 -3 10 9 11 -1 15 -13 14 -11 -9 -10 19 -14 -4
right_child=1 4 17 -5 -6 -7 -8 8 16 13 -12 12 18 -15 -16 -17 -18 -19 -20 -21
leaf_value=-0.02530837092290519 -0.025656492772138828 0.016916556469539882 0.019399203567374398 0.047194295705112251 0.043830773799495452 0.040874893742107302 -0.05618173526472945 -0.021274755525110187 -0.081608529614209613 -0.0089152255272804543 0.048173978994514748 0.037529329191672366 -0.057914603785632603 -0.025992139310060381 0.073280673849427921 -0.07144541328864315 -0.030563835178987211 0.076932366683848855 -0.0091100252105722271 0.063963094101307238
leaf_weight=4.7732390612363815 7.0636571645736685 4.8515903055667939 5.5590242892503756 8.7294702678918821 6.1116561293601981 4.8790490925312033 9.3373236805200559 9.3518611341714877 5.7939620912075025 4.9922118335962278 6.0625362396240217 5.835473075509074 4.7729264795780164 5.3228417932987204 5.1525736004114151 8.3731914758682233 5.5610835254192352 8.2390847951173765 5.5756976306438446 4.9508927017450333
leaf_count=20 29 20 23 37 26 20 38 39 24 21 25 24 20 22 21 35 23 35 23 21
internal_value=0.00100304 0.0220006 0.0373202 0.0146109 0.000984701 -0.0127483 -0.0311874 -0.016519 -0.0222862 -0.0143929 0.0158045 -0.0267008 -0.00668653 0.0125892 0.0328324 -0.044975 -0.0566096 0.0564493 -0.0316194 0.0403919
internal_weight=131.289 59.7217 34.5421 15.7931 25.1796 19.068 14.1889 71.5676 60.7318 49.3768 10.8358 33.9091 16.1841 15.4676 10.1448 17.7251 11.355 18.749 10.3486 10.5099
internal_count=546 249 145 66 104 78 58 297 252 205 45 141 67 64 42 74 47 79 43 44
is_linear=0
shrinkage=0.05


Tree=12
num_leaves=21
num_cat=0
split_feature=25 15 14 36 34 2 13 11 0 18 33 22 31 14 10 29 1 21 11 1
split_gain=20.1391 6.46679 5.92845 5.43382 5.40372 5.99313 5.34505 4.7532 5.29388 4.7734 4.42163 7.26959 4.23969 4.02745 3.65608 2.43419 2.12223 4.69878 3.74414 1.72549
threshold=0.021998099195062553 0.04335972113880996 0.042087977164154751 0.76451854627201332 35.795542547080807 7.1431374178477336 0.12974070486821984 0.45645942423734021 -1.0000000180025095e-35 0.048000000000000202 43.018890624700127 -0.013025000000000448 -0.23026678981821727 0.027759387210212903 0.23543571993581702 0.062106682367338607 7.0110422737368916 0.033874999999999302 0.49072756816017965 10.106210329169878
decision_type=2 2 2 2 2 2 2 2 2 2 2 2 2 2 2 2 2 2 2 2
left_child=7 2 3 12 -3 6 14 8 -1 10 11 -10 -2 -13 -6 -4 -17 18 -18 -5
right_child=1 4 15 19 5 -7 -8 -9 9 -11 -12 13 -14 -15 -16 16 17 -19 -20 -21
leaf_value=-0.061510173894498338 0.014974395770003797 0.047401971237432443 0.073919879584040935 0.05273438267864819 -0.010518151754965876 0.041117076281007692 0.01527626512255207 -0.061544623035825488 -0.043758312018042644 0.022182707349299235 -0.050989016493722387 -0.0068038618482248736 -0.049620494161762271 0.052093851545135308 -0.060468008404817447 0.058769008405978401 -0.019358271479217034 0.063199948959449914 0.040379503157651264 0.012342603802579266
leaf_weight=5.9161203950643531 4.890177994966507 4.8131666034460094 5.10888643562794 5.3040456324815732 6.6186233162880006 4.6764998584985724 6.836618870496749 7.1645856201648703 8.3149827271699905 8.556478872895239 8.3565463423728925 7.1757845431566274 5.2862754315137881 4.8739531934261322 8.204784154891966 7.0224357545375851 6.0627067387104052 5.548637479543685 4.6231380850076675 5.2721776068210602
leaf_count=26 20 20 22 22 27 20 28 30 35 35 35 30 22 20 34 29 25 24 20 22
internal_value=0.000959005 0.0165093 0.0278111 0.00750254 -0.00131196 -0.0102147 -0.0212975 -0.0238272 -0.017571 -0.0105976 -0.0203634 -0.00779631 -0.0185802 0.0170195 -0.0381655 0.042669 0.035804 0.0258702 0.00648676 0.0325993
internal_weight=130.627 80.2682 49.1185 20.7527 31.1497 26.3365 21.66 50.3585 43.1939 37.2777 28.7213 20.3647 10.1765 12.0497 14.8234 28.3658 23.2569 16.2345 10.6858 10.5762
internal_count=546 335 206 86 129 109 89 211 181 155 120 85 42 50 61 120 98 69 45 44
is_linear=0
shrinkage=0.05


Tree=13
num_leaves=21
num_cat=0
split_feature=25 12 14 36 11 30 12 11 24 19 33 33 38 38 35 25 38 34 1 1
split_gain=18.2968 10.1247 9.64773 6.16193 5.16559 8.07191 4.96355 4.34667 5.38125 5.88187 5.32072 5.3226 3.42297 2.60134 3.80333 3.62751 2.5708 1.79416 1.38152 2.29382
threshold=0.021998099195062553 0.0078580317932014018 0.11863752728134941 0.80786401098901151 0.37995193428343249 0.61847796574870506 0.059058806090059111 0.45645942423734021 0.77915828840674062 0.057850000000001456 51.2506123410055 25.679919142998667 0.13664654958604289 0.27334993773349919 0.54285714285714859 0.037370505077468801 0.33333333333333243 24.816784458851732 9.9423272646513627 12.744919332942475
decision_type=2 2 2 2 2 2 2 2 2 2 2 2 2 2 2 2 2 2 2 2
left_child=7 -2 3 13 6 -6 -4 8 16 10 11 -10 -8 14 -3 -16 -1 -13 -5 -20
right_child=1 2 4 18 5 -7 12 -9 9 -11 -12 17 -14 -15 15 -17 -18 -19 19 -21
leaf_value=-0.023090254872602245 -0.036852430033663716 -0.016567944133717673 0.018639344496559317 0.076977442929308512 -0.020346823748805767 0.06661973590758398 -0.064225294147817094 -0.059040792978964446 -0.033525224252405263 0.042902429317994428 -0.057234445394387136 0.043466120394096121 -0.010073380730319582 0.051093240189550339 -0.0013881429663304423 0.05733926959477928 -0.065294662894431699 0.00076802447633973411 0.023307451700325384 0.065305019957373076
leaf_weight=8.3499660789966565 8.2017191350460035 7.5607063174247804 6.347278490662581 6.1752763092517879 4.9179891198873502 5.8324311971664429 5.6563877612352353 7.0967217683792105 7.338292986154566 5.4000118821859351 5.6463121622800818 5.0652998536825162 6.0282760411500931 5.046987146139144 4.9379648715257627 5.6245055049657822 6.3538564890623084 4.7838711589574814 5.4337789714336386 8.0945869833230955
leaf_count=35 34 31 26 26 21 25 23 30 31 22 24 21 25 21 20 24 28 20 23 36
internal_value=0.000916715 0.0157706 0.0217939 0.0368261 -0.000597922 0.0268352 -0.0169532 -0.0227911 -0.0167997 -0.00402584 -0.015124 -0.00129018 -0.0362876 0.0193461 0.0105051 0.0298841 -0.0413277 0.0227271 0.0573814 0.0484364
internal_weight=129.892 79.8579 71.6562 42.8738 28.7824 10.7504 18.0319 50.0343 42.9376 28.2338 22.8338 17.1875 11.6847 23.1702 18.1232 10.5625 14.7038 9.84917 19.7036 13.5284
internal_count=546 335 301 181 120 46 74 211 181 118 96 72 48 96 75 44 63 41 85 59
is_linear=0
shrinkage=0.05


Tree=14
num_leaves=19
num_cat=0
split_feature=25 12 14 36 0 28 7 0 33 17 19 33 36 14 29 6 7 1
split_gain=16.6308 9.1792 8.81138 5.73717 4.97689 5.59914 4.76722 4.8761 3.79142 7.61412 3.57057 2.95546 2.81027 2.36899 4.6705 2.21266 1.88362 3.59053
threshold=0.021998099195062553 0.0078580317932014018 0.11863752728134941 0.80786401098901151 0.065940504586110324 72.284208703396743 0.40380010037746661 0.0075878870957691016 41.264698500809992 0.00093210639989055007 0.033600000000000109 60.650533416588722 0.78297101449275475 0.043101001388404905 0.25473943643280933 0.65598913181612317 1.056363370074852 12.744919332942475
decision_type=2 2 2 2 2 2 2 2 2 2 2 2 2 2 2 2 2 2
left_child=6 -2 3 13 5 12 7 -1 9 -8 -9 -6 -4 -3 -15 -10 -5 -18
right_child=1 2 4 16 11 -7 8 10 15 -11 -12 -13 -14 14 -16 -17 17 -19
leaf_value=-0.034323591828906368 -0.035019256747523438 -0.001578711884801401 -0.015630151106612759 0.074298569417682633 0.053758891281261656 0.021200498860321229 -0.052548949779171621 -0.0059934018690211985 -0.078545835560162647 0.015482786263813801 0.047877308122774666 0.0013907554369041173 -0.065259343570333556 0.063662237702771907 0.0056703497103993503 -0.036344632639313555 0.011820384553323881 0.067713201218660646
leaf_weight=7.9272474199533489 8.1995416730642301 9.0060630142688769 6.5095225870609337 7.8152588009834316 5.1244311928749067 6.2960964888334265 8.3718191087245994 7.6853099018335325 5.7230053991079313 8.0843548625707609 5.1284802556037903 5.6810740232467651 5.0772109031677246 6.2132427245378476 7.8691101223230362 6.7925000786781311 5.2268326729536039 6.3813265711069107
leaf_count=35 34 37 27 34 22 26 36 32 24 34 21 24 21 26 33 29 22 29
internal_value=0.000878105 0.0150774 0.0208466 0.035296 -0.000565218 -0.0167535 -0.0218006 -0.00350103 -0.0349014 -0.0191273 0.0155673 0.026226 -0.0373773 0.0184487 0.0312568 -0.0556421 0.0553222 0.0425462
internal_weight=129.112 79.3997 71.2002 42.5118 28.6883 17.8828 49.7127 20.741 28.9717 16.4562 12.8138 10.8055 11.5867 23.0884 14.0824 12.5155 19.4234 11.6082
internal_count=546 335 301 181 120 74 211 88 123 70 53 46 48 96 59 53 85 51
is_linear=0
shrinkage=0.05


Tree=15
num_leaves=21
num_cat=0
split_feature=1 12 26 16 9 13 15 18 14 18 1 30 6 6 23 17 1 19 15 6
split_gain=8.07686 9.12666 7.85546 5.26924 5.19716 4.60221 5.3861 4.44833 4.37337 4.93723 4.88612 6.38215 4.31653 5.13114 4.37821 6.8053 3.95831 3.18119 2.05031 1.00303
threshold=7.6517783318566694 0.017988065589920603 0.047165508070090505 0.065555297562716816 0.11074841976146101 0.027116831583531405 -0.062524804411120891 0.027750000000000604 0.14366121515865987 0.089250000000001467 3.5617081299924824 0.15822392171825078 1.5403466348725503 0.82348855906064466 0.046334848484849013 0.011635128561365352 10.070842392682225 -0.041500000000002396 0.18808318973104035 0.8650784889007247
decision_type=2 2 2 2 2 2 2 2 2 2 2 2 2 2 2 2 2 2 2 2
left_child=2 7 8 5 -4 6 -3 17 9 10 11 -1 13 14 15 -12 -8 -2 -5 -7
right_child=1 3 4 18 -6 19 16 -9 -10 -11 12 -13 -14 -15 -16 -17 -18 -19 -20 -21
leaf_value=-0.014994768444111567 -0.010312219851694268 0.055342466176776253 -0.0049455686209224897 -0.023397882420754051 0.058645931261880439 0.046316344591821206 0.040047004188735059 0.017487967812310639 -0.060296086910744409 0.027461420711512693 0.00051506877683507623 -0.081572627651990651 -0.047789334229455992 0.042750251329463314 0.027809458628610145 -0.071104843322382316 -0.01622248330166623 -0.066590121151493556 0.02064468814778974 0.077834611844573659
leaf_weight=8.1431562006473523 4.9183204919099799 7.9750158488750449 7.2065547257661802 6.2193493694066984 5.797940731048584 4.643256336450575 4.8312804549932542 5.3228713274002066 5.9317134618759146 6.0522599518299094 8.7906153053045362 6.4511656910181037 5.8638685941696158 5.4508259296417227 5.0323019176721564 5.3265865594148627 8.8514501452445966 5.1303099989891043 4.5946933031082153 5.531108558177948
leaf_count=35 21 34 30 26 24 20 21 23 25 25 37 28 25 23 21 23 37 22 20 25
internal_value=-0.000234284 0.0135629 -0.0116621 0.0254689 0.0234061 0.0357128 0.0226821 -0.0194685 -0.0196569 -0.0149405 -0.0206359 -0.0444244 -0.00923966 -5.07538e-05 -0.0122339 -0.026508 0.0036459 -0.0390448 -0.00468498 0.0634507
internal_weight=128.065 58.0177 70.047 42.6462 13.0045 31.8321 21.6577 15.3715 57.0425 51.1108 45.0585 14.5943 30.4642 24.6003 19.1495 14.1172 13.6827 10.0486 10.814 10.1744
internal_count=545 249 296 183 54 137 92 66 242 217 192 63 129 104 81 60 58 43 46 45
is_linear=0
shrinkage=0.05


Tree=16
num_leaves=21
num_cat=0
split_feature=0 0 29 26 14 33 2 17 1 7 16 1 21 19 27 7 35 0 3 0
split_gain=13.4177 5.69009 6.12481 4.79046 5.21927 4.59299 4.09103 6.97291 4.59674 3.83504 3.58587 5.65266 5.83567 3.8289 4.1532 3.40127 3.33727 2.99147 2.40971 1.85329
threshold=0.059833947760287561 0.0072279490647884003 0.046718614758600709 -0.048092873164900393 0.13179485155258394 60.650533416588722 1.1613295760697755 0.030640179571766405 3.8676790896290645 0.757994329196373 0.065555297562716816 6.0525542976512776 0.039999999999999751 -0.12100000000000063 0.046816965480331811 0.7495431799826785 0.44773885607960467 0.021618546874519601 3.0271846574991685 0.0027991886409736003
decision_type=2 2 2 2 2 2 2 2 2 2 2 2 2 2 2 2 2 2 2 2
left_child=1 2 -1 9 6 18 7 -5 -8 -3 11 -10 13 -13 15 -15 -6 -17 -2 -4
right_child=5 3 19 4 16 -7 8 -9 10 -11 -12 12 -14 14 -16 17 -18 -19 -20 -21
leaf_value=0.00023085218007613828 0.074439278446279331 -0.0046784893733966834 -0.075527770342238509 0.0017208464036048495 0.0019917513891208761 0.0055887923526051313 -0.039727723787957178 0.073310345676399546 0.051720091971271025 -0.065060628749751423 -0.028269866682046292 0.032449412895436625 0.045547071502941787 -0.062246881197538323 0.023580417276539881 0.016756135009101135 -0.05209959039099013 -0.035806159647327397 0.028570908234244137 -0.035032899277197854
leaf_weight=8.8199001401662844 7.5366622060537356 5.5775107741355878 5.674566984176634 7.970107749104498 5.1024929434061033 6.7555800378322592 5.9211037606000891 5.933686688542366 7.484411045908927 4.9753208756446838 6.2215650081634513 4.9628412574529603 6.6018881201744071 5.1388850808143749 4.9776254743337622 4.7833913415670377 6.4637712687253952 6.2357319444417953 4.6177984476089478 5.6273342818021774
leaf_count=39 35 23 26 33 21 29 25 25 31 21 26 21 29 22 21 20 27 26 20 25
internal_value=-0.000224254 -0.00699977 -0.0309959 -0.00153465 0.00275337 0.0386416 0.00816536 0.0322729 0.0017598 -0.0331467 0.0070533 0.0125222 0.00355062 -0.00707284 -0.016353 -0.0286549 -0.028237 -0.0129889 0.0570127 -0.055365
internal_weight=127.382 108.472 20.1218 88.3503 77.7975 18.91 66.2312 13.9038 52.3274 10.5528 46.4063 40.1848 32.7004 26.0985 21.1356 16.158 11.5663 11.0191 12.1545 11.3019
internal_count=545 461 90 371 327 84 279 58 221 44 196 170 139 110 89 68 48 46 55 51
is_linear=0
shrinkage=0.05


Tree=17
num_leaves=21
num_cat=0
split_feature=0 0 12 13 30 26 29 33 11 24 13 11 3 0 35 29 28 3 8 0
split_gain=12.2618 5.20473 5.8861 6.08098 5.79845 5.75842 5.69153 4.29925 4.16161 4.32383 4.23915 3.51769 5.20755 2.9841 2.54769 2.53396 2.40611 2.32667 2.10431 1.78404
threshold=0.059833947760287561 0.0072279490647884003 0.016818116386405752 0.014865116324728351 0.12855165662898396 -0.028700226525938146 0.046718614758600709 60.650533416588722 0.21094513524613281 0.94751066488479341 0.038562095196896608 0.32441607308281883 1.0954488707167294 0.020821924059875856 0.50000000000000189 0.14800905800442973 66.542403502067202 3.0271846574991685 0.4974655523400679 0.0027991886409736003
decision_type=2 2 2 2 2 2 2 2 2 2 2 2 2 2 2 2 2 2 2 2
left_child=1 6 3 18 5 -4 -1 17 9 -6 11 -10 -13 -7 -11 -5 -12 -2 -3 -8
right_child=7 2 4 15 8 13 19 -9 10 14 16 12 -14 -15 -16 -17 -18 -19 -20 -21
leaf_value=0.00021929605830471236 0.072727466804293858 -0.073968032525695657 -0.010178109526977853 0.027719609136482561 -0.012429976813769221 0.076335116607321535 -0.073714089418797271 0.0053147868207538236 -0.034634053754001456 0.061222290558556984 -0.066783986745380705 -0.01727509416496811 0.054438055472832009 0.028232961667250634 0.013044789672627745 -0.021297354238598753 -0.017309549713596967 0.027327499304910397 -0.031146615243869125 -0.033621580142345522
leaf_weight=8.8204636573791522 7.3335013240575808 4.6428871899843234 6.4683158397674587 5.5306607335805875 9.1077926456928271 5.3226992189884177 5.5272096544504148 6.7488487511873236 5.1212357282638576 4.8548031449317914 5.0921411514282209 5.4268634319305402 4.7448285073041916 8.1780694723129255 6.3116267472505569 5.0387149155139923 4.7497755438089371 4.5873046368360519 7.5090657472610474 5.5718087553977966
leaf_count=39 35 20 27 23 38 22 26 29 21 20 21 23 21 35 27 21 20 20 32 25
internal_value=-0.000212851 -0.00667976 -0.00146095 -0.0233838 0.00615805 0.0286125 -0.0297614 0.0372034 -0.00371651 0.0131372 -0.017311 -0.000838263 0.0161772 0.0471973 0.0339908 0.00435186 -0.0429073 0.0552569 -0.0475074 -0.0535873
internal_weight=126.689 108.019 88.0995 22.7213 65.3782 19.9691 19.9195 18.6697 45.4091 20.2742 25.1348 15.2929 10.1717 13.5008 11.1664 10.5694 9.84192 11.9208 12.152 11.099
internal_count=545 461 371 96 275 84 90 84 191 85 106 65 44 57 47 44 41 55 52 51
is_linear=0
shrinkage=0.05


Tree=18
num_leaves=21
num_cat=0
split_feature=25 25 12 1 18 29 19 12 11 22 21 17 23 25 7 16 12 10 7 12
split_gain=9.63912 5.72221 4.83575 6.49755 5.17808 4.90521 4.78045 4.32112 4.18348 6.05624 3.83074 4.57569 7.50609 4.17389 4.92243 3.82002 3.17161 3.11364 3.07383 2.42157
threshold=0.062585103861165517 0.086826180576180509 0.016818116386405752 7.6517783318566694 -0.18574999999999861 0.63115599047264059 -0.0076000000000003487 0.11010467826753811 0.11391964862545172 0.021949999999998804 -0.089500000000001731 0.012655346069371751 0.033613636363636061 0.0070922382187247517 0.50927072997392453 -0.017535565692887247 0.066128781855256905 0.31313388100077527 0.76845276759832049 0.04707463316970386
decision_type=2 2 2 2 2 2 2 2 2 2 2 2 2 2 2 2 2 2 2 2
left_child=2 19 8 7 -5 6 -6 10 -1 18 -4 15 -13 -14 -15 -12 -3 -8 -10 -2
right_child=1 16 3 4 5 -7 17 -9 9 -11 11 12 13 14 -16 -17 -18 -19 -20 -21
leaf_value=0.010269459295022383 0.032556432053119429 0.031954306815567698 -0.041150619605855122 0.065460706499336649 -0.0061546145455011496 -0.034281918903285982 0.06940463711661686 -0.052783695846115766 -0.031539313646957209 0.0085009712619584094 -0.00042913398601483104 -0.064102119621570183 -0.038290217391328624 0.0445845747344399 -0.01342768693633287 0.05713322543908992 -0.027125715737773223 0.015893573844307177 -0.076604484660883654 0.080292777580548494
leaf_weight=6.7393523007631329 5.2291462272405642 4.5989957600831968 6.4930414706468573 4.9019277095794704 9.1527556329965662 5.1401666700839987 5.4849335402250254 5.5233005285263053 8.5740851461887377 5.8124706000089637 6.1652343720197678 5.3383604884147671 4.6658047884702709 7.426461920142172 7.203431099653244 5.4126004278659803 4.488873228430748 5.389682725071907 6.7728649377822867 5.4003235697746277
leaf_count=29 24 21 28 21 39 22 23 24 38 25 26 23 21 31 30 23 20 24 29 24
internal_value=-0.000202709 0.031903 -0.00616374 0.00020517 0.0184466 0.00928953 0.0204725 -0.011168 -0.024038 -0.0349651 -0.0057856 0.000555589 -0.0116292 0.00288798 0.0160206 0.0264811 0.00277225 0.0428835 -0.0514273 0.056809
internal_weight=125.914 19.7173 106.196 78.2977 30.0695 25.1675 20.0274 48.2282 27.8988 21.1594 42.7049 36.2119 24.6341 19.2957 14.6299 11.5778 9.08787 10.8746 15.347 10.6295
internal_count=545 89 456 335 129 108 86 206 121 92 182 154 105 82 61 49 41 47 67 48
is_linear=0
shrinkage=0.05


Tree=19
num_leaves=21
num_cat=0
split_feature=0 0 29 12 30 22 30 1 12 14 20 33 8 8 11 35 0 24 34 29
split_gain=10.5565 4.57283 5.24008 4.84779 5.01367 4.84194 4.39713 3.9664 5.91938 4.62723 5.82946 3.94112 3.59676 3.55264 3.05188 3.25948 1.72027 1.49516 1.32072 1.18144
threshold=0.059833947760287561 0.0072279490647884003 0.046718614758600709 0.016818116386405752 0.12855165662898396 0.021949999999998804 -0.096972494628578779 3.4063334967086338 0.027831778310269104 0.12373544567890161 0.19044848484848528 56.162970505919212 0.13616202738411173 0.60071189114780854 0.21094513524613281 0.52693742229589879 0.0027991886409736003 0.99691476486494612 38.061184972195207 0.18064503151578992
decision_type=2 2 2 2 2 2 2 2 2 2 2 2 2 2 2 2 2 2 2 2
left_child=1 2 -1 5 12 6 -3 -6 -9 14 -11 19 -5 -14 17 -16 -4 -10 -8 -2
right_child=11 3 16 4 7 -7 18 8 9 10 -12 -13 13 -15 15 -17 -18 -19 -20 -21
leaf_value=0.00064023324578243795 0.039795317625722429 -0.0011040792987433662 -0.071659825005140509 0.059226441119365883 -0.044327678850957064 0.0088495198063306638 -0.078820355088038044 -0.04755076965165226 0.023491403053023385 -0.059078289122332921 0.016330053906755702 0.011128120122537055 -0.011836583537873077 0.038773675968644408 -0.017184925881334023 0.030343080869587931 -0.031733115944728454 0.062536095496100355 -0.04089485866356278 0.075320221653078293
leaf_weight=8.7836014926433581 4.6738717555999774 4.935387894511222 5.3088248968124372 5.921901777386668 5.2735139727592459 8.3584420979022962 4.53477291762829 5.2681924402713767 4.9586662650108355 4.7889555245637876 5.5135651975870132 8.9112351387739164 7.1565223038196546 6.7266958653926849 7.1929412782192212 7.2366327792406082 5.4852308481931686 4.8501849323511124 4.6488751620054245 4.6876432299613953
leaf_count=39 23 21 26 25 22 35 20 22 21 20 23 39 30 29 30 32 25 21 20 22
internal_value=-0.000193293 -0.00619434 -0.0280355 -0.00129996 0.00563213 -0.0213115 -0.0391667 -0.00357979 0.00181808 0.00934783 -0.0187223 0.0349284 0.0266014 0.0126851 0.021279 0.00665103 -0.0513702 0.0427978 -0.059622 0.0575839
internal_weight=125.216 106.943 19.5777 87.3653 64.8878 22.4775 14.119 45.0827 39.8091 34.5409 10.3025 18.2728 19.8051 13.8832 24.2384 14.4296 10.7941 9.80885 9.18365 9.36151
internal_count=545 461 90 371 275 96 61 191 169 147 43 84 84 59 104 62 51 42 40 45
is_linear=0
shrinkage=0.05


Tree=20
num_leaves=23
num_cat=0
split_feature=24 12 8 12 18 33 2 14 14 18 28 13 15 29 24 21 38 7 30 38 2 6
split_gain=9.27615 6.86402 9.27749 4.77918 5.20154 7.37818 9.15811 5.30525 10.6601 7.04035 5.18119 4.95592 4.56565 4.56181 4.25642 4.19799 4.08265 3.3909 2.93718 2.78506 0.82357 0.677541
threshold=0.82488876556109159 0.0099538638937124013 0.20367219734419187 0.0023114804954000004 0.38424999999999904 66.52710165802786 7.1431374178477336 0.042087977164154751 0.11330191722258837 -0.093999999999999181 69.581480452103008 0.004956314773021251 0.057386577211825211 0.64610464200960405 1.2375569810560005 -0.09275000000000129 0.24256465517241388 0.88975869343752678 0.13010718413058656 0.15004586805290332 8.7141188976299251 0.81495208181608703
decision_type=2 2 2 2 2 2 2 2 2 2 2 2 2 2 2 2 2 2 2 2 2 2
left_child=1 -1 16 -2 5 6 7 9 12 15 -7 17 14 -10 21 -5 -3 -11 -4 -16 -8 -9
right_child=3 2 18 4 -6 10 20 8 13 11 -12 -13 -14 -15 19 -17 -18 -19 -20 -21 -22 -23
leaf_value=-0.077990094337739804 0.056444152371496692 -0.012724352892515212 0.049228506137061076 -0.013723817988675439 0.048170966539043097 0.0059723752176665534 0.06381266289416973 0.076967136735565975 -0.058455354740808277 -0.075053693110107317 -0.054714693887625059 0.0072234666256798131 -0.010432860901269315 0.0069411172644724545 0.046663570962633141 0.047576103392703628 -0.071719700807538242 -0.023314724018507885 -0.0027427156280350343 -0.0088084069997755084 0.035553608749972432 0.051100273800553077
leaf_weight=5.0174489021301296 4.7614212036132804 5.4741019606590289 4.7244029343128187 5.6449022591114044 6.5369493514299384 5.8581190258264533 5.9686878174543363 5.7845046073198372 5.5829475522041303 6.7490315884351748 8.8007341772317869 5.1848435401916495 4.8908238410949698 5.1050747632980347 4.4782045781612378 5.528086796402933 6.3162892311811447 5.9663051068782806 6.4032992273569107 4.5736034065485001 4.5388827919960022 4.501708984375
leaf_count=23 20 24 20 24 28 25 27 25 24 30 37 22 21 22 20 24 29 26 28 20 21 20
internal_value=0.000465293 -0.0250203 -0.0134236 0.00755259 0.00511989 0.00196339 0.00834378 0.00123988 0.0143769 -0.0145376 -0.0304623 -0.0339768 0.032726 -0.0272191 0.0436414 0.0166057 -0.044329 -0.0507767 0.0193223 0.0186353 0.0516058 0.0656466
internal_weight=128.39 27.9355 22.9181 100.455 95.6934 89.1565 74.4976 63.99 34.9169 29.0732 14.6589 17.9002 24.2288 10.688 19.338 11.173 11.7904 12.7153 11.1277 9.05181 10.5076 10.2862
internal_count=560 124 101 436 416 388 326 278 152 126 62 78 106 46 85 48 53 56 48 40 48 45
is_linear=0
shrinkage=0.05


Tree=21
num_leaves=22
num_cat=0
split_feature=0 19 23 18 37 17 17 27 7 27 22 35 23 33 19 25 35 34 37 27 12
split_gain=6.80938 5.44233 9.24269 5.49558 7.8884 6.79618 4.59918 7.72713 4.37532 4.69404 6.07742 7.21782 9.88491 4.24729 4.13868 4.11199 3.29293 3.28436 4.03486 2.4139 1.68234
threshold=0.032487010659321462 -0.12100000000000063 -0.076465151515151486 -0.021250000000000796 0.30109890109890242 0.023721841332530202 0.091574911406939061 0.053545559901492061 1.2174573360572396 0.052151975093425208 0.028474999999999705 0.59999999999999909 0.22294090909090877 49.500039389393088 0.068999999999998771 0.045609419647255858 0.51187313853336691 21.949019226194924 0.24922360248447248 -0.083990652484228892 0.051491496684032211
decision_type=2 2 2 2 2 2 2 2 2 2 2 2 2 2 2 2 2 2 2 2 2
left_child=1 2 -1 17 6 -6 7 16 9 13 -11 -12 -13 15 -7 -2 -5 18 -3 -4 -10
right_child=8 3 19 4 5 14 -8 -9 20 10 11 12 -14 -15 -16 -17 -18 -19 -20 -21 -22
leaf_value=-0.040070728625520989 0.03702772952875176 0.011568723999968675 0.019456214137825542 -0.057202079100326431 0.063147536447052885 -0.031902600392575829 -0.067161173458604603 0.042033294258571566 0.059426106119407754 0.073589712353440292 0.058131012369124206 -0.049738909132349726 0.044484640580742391 -0.054298362672012851 0.026847070308435219 -0.029258107515496325 -0.0099155775843773591 -0.062475523693861369 -0.045698315799728405 0.06456423103430757 0.022476067032755058
leaf_weight=5.041011422872546 4.6525332629680616 5.4162288606166857 6.295654922723771 6.5394521504640641 6.066010162234309 5.848697826266287 4.8418385684490195 4.8515985161066046 6.1978656351566297 4.4080296307802227 4.9719395190477398 7.2783931791782361 4.5072478055953979 4.7645805478095999 6.1497282534837723 4.7063768804073334 8.4249164164066297 7.6802863627672187 7.1180611252784729 5.6075919121503803 6.1246514916419983
leaf_count=22 20 23 27 31 26 26 21 21 29 21 21 31 20 20 26 21 36 34 32 24 28
internal_value=0.000443341 -0.0084777 0.0166748 -0.0152494 -0.00508625 0.0200154 -0.0234759 -0.0128018 0.0154107 0.00645405 0.0213504 0.00760896 -0.0137045 -0.0158697 -0.00179078 0.00369413 -0.0305799 -0.0367287 -0.0209525 0.0407065 0.0410609
internal_weight=127.493 79.8811 16.9443 62.9368 42.7222 18.0644 24.6578 19.816 47.6116 35.2891 21.1656 16.7576 11.7856 14.1235 11.9984 9.35891 14.9644 20.2146 12.5343 11.9032 12.3225
internal_count=560 349 73 276 187 78 109 88 211 154 93 72 51 61 52 41 67 89 55 51 57
is_linear=0
shrinkage=0.05


Tree=22
num_leaves=23
num_cat=0
split_feature=24 12 8 12 0 38 2 19 15 7 34 38 21 1 28 29 30 8 15 20 24 26
split_gain=8.14114 6.36552 8.0807 4.14106 4.80783 4.44403 6.31958 4.02453 4.06279 4.96145 6.38633 3.69324 3.56038 3.40917 2.8798 2.6594 2.58085 2.52024 6.37986 1.68542 1.55073 1.13663
threshold=0.82488876556109159 0.0099538638937124013 0.20367219734419187 0.0023114804954000004 0.032487010659321462 0.051597363083165357 3.9854123250024078 -0.14270000000000038 -0.0058332766399186485 0.90072911742338813 62.099625478378314 0.24256465517241388 -0.056750000000001292 10.885494404183584 68.023748334285173 0.2767827948233697 0.13010718413058656 0.07675194238253101 0.048220319038701311 -1.0000000180025095e-35 1.0380950286064252 0.034989834135901461
decision_type=2 2 2 2 2 2 2 2 2 2 2 2 2 2 2 2 2 2 2 2 2 2
left_child=1 -1 11 -2 7 6 -6 12 20 10 15 -3 -5 -8 -12 -10 -4 18 -7 -19 -9 -21
right_child=3 2 16 4 5 17 13 8 9 -11 14 -13 -14 -15 -16 -17 -18 19 -20 21 -22 -23
leaf_value=-0.075635649704919039 0.052720670888332266 -0.011889997690447273 0.046000434197459167 -0.0047392676814991203 -0.04227510816637698 0.054104522389929167 -0.0014684213411062267 -0.01393662534647282 0.064157668721819119 -0.039499183391142167 0.004938140997700494 -0.068523432373392423 0.056537056132310852 0.058767731537621617 -0.044108651853040803 0.012251747245436463 -0.0027582718597779954 0.02111379501573311 -0.025516822986024524 0.075128051606847879 -0.047714306343628075 0.040850352313570967
leaf_weight=4.8488943725824383 4.7369538545608512 5.4512681066989916 4.7137638628482801 5.0123810321092606 6.2677654772996929 4.6651104390621203 6.0566860139369947 5.7773572057485536 5.3180701136589139 6.524460867047309 8.0118917375802976 6.1001120805740356 4.4977124184370023 3.8370797336101532 4.7774077206850043 4.6040550768375397 6.3969398736953735 5.4951804429292688 5.4610139429569244 4.2611666023731196 8.2504357248544675 5.5924255400896072
leaf_count=23 20 24 20 21 26 22 26 25 23 28 34 29 20 20 21 20 28 25 23 20 37 25
internal_value=0.000424299 -0.0236406 -0.0125154 0.00710172 0.00481283 0.0175159 -0.00299277 -0.00520936 -0.011683 -0.00106955 0.00997038 -0.0417973 0.0242408 0.0218928 -0.0133832 0.0400723 0.0179278 0.0305267 0.0111648 0.0433005 -0.0338029 0.0556737
internal_weight=126.658 27.511 22.6621 99.1472 94.4102 41.6364 16.1615 52.7738 43.2637 29.2359 22.7114 11.5514 9.51009 9.89377 12.7893 9.92213 11.1107 25.4749 10.1261 15.3488 14.0278 9.85359
internal_count=560 124 101 436 416 187 72 229 188 126 98 53 41 46 55 43 48 115 45 70 62 45
is_linear=0
shrinkage=0.05


Tree=23
num_leaves=21
num_cat=0
split_feature=0 19 23 18 37 30 19 35 35 7 27 22 35 23 18 14 32 37 3 12
split_gain=5.55714 4.57004 8.00078 4.85349 7.05231 5.95748 4.68247 4.09296 6.99008 3.93805 4.14918 5.59124 6.43387 8.85516 3.84485 2.85994 2.71167 2.35473 2.1163 1.52056
threshold=0.032487010659321462 -0.12100000000000063 -0.076465151515151486 -0.021250000000000796 0.30109890109890242 0.12119993077179501 0.066999999999999768 0.52919863597612937 0.72222222222222354 1.2174573360572396 0.052151975093425208 0.028474999999999705 0.59999999999999909 0.22294090909090877 -0.016249999999999397 -0.018099269249586849 21.89461656119143 0.24922360248447248 2.3990835439194442 0.051491496684032211
decision_type=2 2 2 2 2 2 2 2 2 2 2 2 2 2 2 2 2 2 2 2
left_child=1 2 -1 15 7 -6 -7 18 -9 10 14 -12 -13 -14 -2 -3 -4 -17 -5 -11
right_child=9 3 16 4 5 6 -8 8 -10 19 11 12 13 -15 -16 17 -18 -19 -20 -21
leaf_value=-0.037725029230725092 0.008672679582863092 -0.0027875998325886664 0.018814559424495753 -0.059754587482583443 0.063846848799608294 -0.030979305183950229 0.029909979151265087 0.034936168566042737 -0.041810710843146755 0.056585558509266602 0.071170536833578144 0.054817721650213862 -0.047375151665862009 0.042251668741853397 -0.043836592929685586 -0.021616643495806311 0.06799692461626472 -0.062505105655159585 -0.017965892480746114 0.021017293313412816
leaf_weight=4.976739481091502 7.5790795683860779 5.268387749791148 7.2389394640922529 7.1430282592773455 5.3076097667217281 6.0623596459627134 6.5893002152442932 6.3365945369005185 5.5790992677211761 5.9825892895460111 4.2089344561100033 4.8911133706569698 7.2822483927011472 4.4338035583496094 6.4555130600929242 5.9593106657266608 4.5730536282062531 8.6061039566993696 5.2612404376268387 6.0369487404823303
leaf_count=22 33 24 31 35 23 27 28 27 24 29 21 21 31 20 28 26 20 39 23 28
internal_value=0.000405845 -0.0076946 0.015451 -0.0139507 -0.00437778 0.0193857 0.000733354 -0.0219261 -0.000997825 0.0140422 0.00553082 0.0196968 0.00665121 -0.0134569 -0.0154801 -0.0343571 0.0378557 -0.045776 -0.04203 0.038721
internal_weight=125.772 78.9018 16.7887 62.113 42.2792 17.9593 12.6517 24.32 11.9157 46.8702 34.8507 20.8161 16.6072 11.7161 14.0346 19.8338 11.812 14.5654 12.4043 12.0195
internal_count=560 349 73 276 187 78 55 109 51 211 154 93 72 51 61 89 51 65 58 57
is_linear=0
shrinkage=0.05


Tree=24
num_leaves=23
num_cat=0
split_feature=24 12 11 12 18 14 14 24 23 15 12 21 23 25 18 22 37 12 32 37 3 23
split_gain=7.22306 5.95361 5.49805 3.6081 4.09625 6.02283 7.68791 4.25303 5.2549 9.34897 5.26921 3.72528 3.55656 3.49734 3.4804 6.3518 3.47819 3.22982 2.81164 2.4504 1.72929 0.723686
threshold=0.82488876556109159 0.0099538638937124013 0.19586454173466483 0.0023114804954000004 0.38424999999999904 0.11863752728134941 0.054417781736962455 1.3663017029952902 -0.091299999999999631 -0.062524804411120891 0.016818116386405752 0.042374999999999406 0.023868181818181754 0.0149821922128029 0.20050000000000018 0.066574999999999565 0.28456642066420551 0.051491496684032211 29.223888946563246 0.16666666666666233 1.9990089221950007 0.016560606060606251
decision_type=2 2 2 2 2 2 2 2 2 2 2 2 2 2 2 2 2 2 2 2 2 2
left_child=1 -1 17 -2 5 6 7 8 -5 -10 -11 19 -4 -12 15 -7 -13 -3 -9 -8 -15 -21
right_child=3 2 12 4 -6 14 11 18 9 10 13 16 -14 20 -16 -17 -18 -19 -20 21 -22 -23
leaf_value=-0.073644676009710405 0.049411163363643699 -0.0098470113814017757 0.045538199800033666 -0.058759672968393885 0.043451447252039227 -0.04804761383119277 0.022249190052999537 0.051171080766121695 0.060960679911154905 -0.049416479043408679 0.036836687119836821 0.036709889632701886 -0.01552447347982556 0.0051233773349830432 -0.060403330422267858 0.01672045665568038 -0.022880119101590241 -0.060250613211594112 -0.0022571761512880338 0.048108159511217274 -0.038262847561619823 0.076455109842053684
leaf_weight=4.6978187859058407 4.7091597616672507 6.864170506596567 5.0881870836019498 5.2627108842134467 6.3094531893730155 6.6029265373945263 6.2899801433086422 4.9296531826257688 4.5744968354702022 8.1748933047056251 4.5999615341424933 4.8659915775060636 4.4879063665866852 4.5929684937000257 4.6118338108062735 8.8713084459304792 4.9294735193252563 5.9189381748437881 4.919935867190361 4.3136166185140592 4.5938528627157211 4.7098950892686844
leaf_count=23 20 31 22 23 28 30 30 23 20 37 20 23 20 20 20 38 21 28 22 20 20 21
internal_value=0.00038919 -0.0224765 -0.0117257 0.00671111 0.00455249 0.00172636 0.00894906 -0.0042256 -0.0131181 -0.00406634 -0.0176111 0.030802 0.0169207 0.00124793 -0.0222788 -0.0109164 0.00672179 -0.0331853 0.0244833 0.0462052 -0.0165718 0.0629041
internal_weight=124.919 27.057 22.3592 97.8621 93.153 86.8435 66.7574 41.6485 31.7989 26.5362 21.9617 25.109 9.57609 13.7868 20.0861 15.4742 9.79547 12.7831 9.84959 15.3135 9.18682 9.02351
internal_count=560 124 101 436 416 388 300 185 140 117 97 115 42 60 88 68 44 59 45 71 40 41
is_linear=0
shrinkage=0.05


Tree=25
num_leaves=22
num_cat=0
split_feature=25 22 20 6 19 17 30 18 17 26 20 21 8 30 2 37 0 24 35 0 6
split_gain=9.22993 4.51099 4.7915 5.09943 4.26108 4.60536 4.1288 5.64213 5.21174 4.07589 5.94114 3.61454 3.29639 3.28935 2.85262 2.74254 2.56028 2.17503 2.7281 2.13319 1.34361
threshold=0.04155547449958321 0.36044999999999977 0.10193939393939361 0.31034238306892042 -0.17495000000000097 -0.021346775321835695 0.67185229554185144 0.085499999999999424 0.012406146979713902 0.0084520107790986027 0.019509090909090903 -0.085999999999999285 0.33904796575121116 0.036262026705341406 2.8464631409136989 0.26766169154228897 0.017183571925442453 1.0638778984988859 0.69935273060273218 0.014848023113196803 1.123984798148338
decision_type=2 2 2 2 2 2 2 2 2 2 2 2 2 2 2 2 2 2 2 2 2
left_child=4 2 3 -2 11 19 7 8 13 10 -10 -1 -4 -7 -15 -12 -8 -5 20 -6 -19
right_child=1 -3 12 17 5 6 16 -9 9 -11 15 -13 -14 14 -16 -17 -18 18 -20 -21 -22
leaf_value=-0.011398333946258599 -0.014130269046366965 0.056293509301305424 -0.046117946051121649 0.0039234818730076657 -0.072771363933791161 -0.020799235887590022 -0.0082536821854631761 0.032465577630882425 -0.053829404249240237 -0.058628893116684247 0.038351809641257874 0.042924844526971428 0.011111348533521926 0.0023040864909404319 0.055174133581910534 -0.016446787982697064 -0.054712804725006926 0.046657603417800543 0.072039455210087755 -0.027784852963826365 0.0069555579165626949
leaf_weight=6.4387915581464767 7.4249105155468014 5.9729666113853446 5.4654458016157133 4.3088673651218441 4.733985558152197 6.1854357123374966 4.7258309572935087 8.1848745793104154 5.6685518175363567 7.6181860119104376 4.6308831572532636 5.8390170186758024 4.6628853976726532 5.8764096498489362 4.5089316219091415 4.5039099305868149 7.9606080800294876 4.2695321142673475 5.4880395531654349 5.9436577260494232 4.2545565217733383
leaf_count=28 34 27 23 20 23 28 22 35 26 34 20 26 21 26 20 20 34 20 28 26 20
internal_value=-0.00307758 0.0160617 0.00936326 0.0208244 -0.0127484 -0.0174799 -0.0120844 -0.00527505 -0.0131972 -0.0289121 -0.013619 0.0144364 -0.0197707 0.00806624 0.0252583 0.0113334 -0.0374063 0.0349905 0.0445439 -0.0477298 0.0268415
internal_weight=124.666 41.8472 35.8742 25.7459 82.8191 70.5413 59.8636 47.1772 38.9923 22.4215 14.8033 12.2778 10.1283 16.5708 10.3853 9.13479 12.6864 18.321 14.0121 10.6776 8.52409
internal_count=561 193 166 122 368 314 265 209 174 100 66 54 44 74 46 40 56 88 68 49 40
is_linear=0
shrinkage=0.05


Tree=26
num_leaves=22
num_cat=0
split_feature=25 13 7 1 17 9 7 14 0 1 34 28 12 26 10 19 19 25 29 26 12
split_gain=8.39428 4.79123 4.58586 3.86134 5.16106 4.82498 4.61818 3.52135 3.39697 3.38354 5.10879 8.16004 4.02907 3.59416 3.5817 3.56969 6.03662 2.85693 2.57418 1.42379 0.92206
threshold=0.04155547449958321 -0.070103759726372575 0.34426650505459638 12.253574835589754 0.36130184563469625 0.65151239925076754 0.71707069311561278 0.13221857113146743 -0.0012352867036304997 1.9384732175410735 61.397696567046061 55.736055678332285 0.017988065589920603 0.054710628289959963 0.31496598929173897 -0.025650000000000294 -0.093850000000000738 0.023121387283236854 0.25473943643280933 0.020821761924759753 0.0072711281222649004
decision_type=2 2 2 2 2 2 2 2 2 2 2 2 2 2 2 2 2 2 2 2 2
left_child=1 -1 -2 4 5 6 -4 -8 -3 -10 11 12 20 18 -13 16 17 -14 -12 -5 -11
right_child=2 8 3 19 -6 -7 7 -9 9 10 13 14 15 -15 -16 -17 -18 -19 -20 -21 -22
leaf_value=0.02733727412949586 -0.030995714416225468 -0.05843549806917462 0.026060503796126074 0.07089810577613799 0.060202366142596969 0.036858144488118028 -0.054441597597102799 0.0028363066615630962 0.027537645650961364 -0.033232011492766007 -0.03223315579858118 0.043631818639765257 0.031171777504553435 -0.00067376225299062851 -0.0077449710775507087 0.025925875218238026 -0.053901385846316575 -0.022667143227782356 -0.074555673153016561 0.029724471459193713 -0.065112927390347949
leaf_weight=7.0158693939447394 4.7232715189456931 4.4113278388977042 5.3519573509693243 4.3653307259082776 4.7305803894996634 7.2828788310289374 6.4300362020730955 4.6051115393638611 4.7520156949758521 4.4868539273738879 8.6675523370504397 8.9525271803140622 5.0882558375597018 4.9805022925138465 5.4619568586349478 5.3162164390087154 7.7334140837192527 4.7776616364717484 6.1364852935075751 4.0454311519861221 4.5861154794692993
leaf_count=31 20 23 24 23 21 36 28 20 21 21 39 39 22 21 24 23 34 21 27 21 22
internal_value=-0.00294138 -0.0121831 0.0153858 0.021337 0.0125244 0.0029957 -0.0120537 -0.0305388 -0.0158628 -0.0132155 -0.0161414 -0.00707089 -0.0211458 -0.0374155 0.0241641 -0.00998013 -0.0208262 0.00509978 -0.0497764 0.0510943 -0.0493469
internal_weight=123.901 82.3668 41.5346 36.8113 28.4006 23.67 16.3871 11.0351 75.3509 70.9396 66.1875 46.403 31.9885 19.7845 14.4145 22.9155 17.5993 9.86592 14.804 8.41076 9.07297
internal_count=561 368 193 173 129 108 72 48 337 314 293 206 143 87 63 100 77 43 66 44 43
is_linear=0
shrinkage=0.05


Tree=27
num_leaves=21
num_cat=0
split_feature=0 2 2 26 34 12 31 22 32 34 32 22 21 32 7 23 3 1 1 27
split_gain=7.87993 4.47788 3.82868 3.83915 5.12349 5.23607 5.19439 4.76551 4.64079 4.25037 4.61439 3.14951 4.87101 4.39585 2.73792 2.25735 3.58411 3.74528 2.13752 0.676627
threshold=0.068425210505942455 3.5962262269398484 7.1431374178477336 0.078475951784222356 63.63912991568386 0.043338063086272957 -0.012537223420803748 0.012899999999999802 49.384269572963639 52.303433585468497 14.496447644120765 0.01407499999999995 0.041749999999999211 28.521594255128914 0.37994562033902063 0.014953030303030402 3.6018676066181832 5.5442449973022088 10.564394890515667 0.10295750757018571
decision_type=2 2 2 2 2 2 2 2 2 2 2 2 2 2 2 2 2 2 2 2
left_child=2 -2 3 4 6 7 9 -6 -8 10 -1 15 -13 -14 -9 16 17 -12 -4 -3
right_child=1 19 18 -5 5 -7 8 14 -10 -11 11 12 13 -15 -16 -17 -18 -19 -20 -21
leaf_value=0.019397069386625571 0.00025246668268616445 0.041896453713506594 0.0025164213730973126 0.022961381963515184 -0.060261530409513146 -0.072677304951798569 0.050126013545752281 0.028898172373349285 -0.0084406346393915959 0.029087300099672166 -0.041341357994768305 0.026251204943416658 0.013415127112126946 -0.048784154946853439 -0.023393106925305343 -0.064650348394348744 -0.056114964288045903 0.016920948372137461 0.046170162559973832 0.071234758980174104
leaf_weight=6.9895726889371863 6.0596854835748655 3.7169960588216782 7.1695134341716749 7.8370074778795233 4.6864571422338512 6.4286230504512778 6.7715718597173673 4.654069632291792 6.7582296878099442 5.2428762614727011 5.1939363852143341 6.396376475691798 4.3350768834352484 8.2399595826864225 5.4166450500488281 5.5113548636436454 6.9953263998031607 5.8822380751371384 4.6055228710174561 4.1700526624917984
leaf_count=31 26 20 32 34 22 29 31 20 29 24 25 28 20 37 24 26 32 27 23 21
internal_value=-0.00281483 0.0325748 -0.00733825 -0.0105958 -0.0135341 -0.0350162 -0.00687227 -0.01861 0.0208716 -0.0137237 -0.0182541 -0.0244383 -0.00927244 -0.0273418 0.000772731 -0.0366387 -0.0280958 -0.0103999 0.0195905 0.0574082
internal_weight=123.061 13.9467 109.114 97.3393 89.5023 21.1858 68.3165 14.7572 13.5298 54.7867 49.5438 42.5543 18.9714 12.575 10.0707 23.5829 18.0715 11.0762 11.775 7.88705
internal_count=561 67 494 439 405 95 310 66 60 250 226 195 85 57 44 110 84 52 55 41
is_linear=0
shrinkage=0.05


Tree=28
num_leaves=22
num_cat=0
split_feature=25 22 9 30 27 19 17 30 26 26 19 34 25 19 28 21 20 6 12 19 36
split_gain=7.07694 3.84594 5.24291 4.29614 3.87182 3.56832 4.08231 3.76455 4.67739 5.87427 4.62037 3.80603 4.23474 3.84197 4.51191 3.21157 2.49244 2.09838 2.09547 2.07726 1.78982
threshold=0.04155547449958321 0.36044999999999977 0.65151239925076754 0.25153176165839713 0.015656588104252456 -0.17495000000000097 -0.021346775321835695 0.67185229554185144 0.054710628289959963 0.029604715228393853 0.066999999999999768 27.111200828070384 0.0090773428058738524 -0.005800000000000049 62.206517471535143 -0.085999999999999285 0.10193939393939361 0.65598913181612317 0.047493259066360906 -0.025650000000000294 0.78474903474903412
decision_type=2 2 2 2 2 2 2 2 2 2 2 2 2 2 2 2 2 2 2 2 2
left_child=5 2 3 4 -2 15 20 8 9 10 11 12 -8 -13 -15 -1 -5 -9 -4 -14 -7
right_child=1 -3 18 16 -6 6 7 17 -10 -11 -12 13 19 14 -16 -17 -18 -19 -20 -21 -22
leaf_value=-0.010618260723891647 -0.011729904675589212 0.052222222233760655 0.015036529185211407 -7.1436515057594297e-05 0.051368459662553559 -0.065163706782013428 -0.028430841082845982 -0.052086787101455714 0.043613064073806648 -0.057973648719301163 0.045020720654409749 -0.066821678097077231 0.0074152938870142467 0.019694750936870911 -0.043568569833324307 0.040801887890339249 -0.041171195573704605 -0.010542698947384348 0.05944791588859686 0.051697589142869232 -0.023572041796087347
leaf_weight=6.4121620059013367 4.665246710181238 5.7397234141826621 5.2701601982116681 7.0387746095657331 5.0769148319959641 5.2258646786212903 5.3009239062666955 7.3248018175363523 4.6506868153810492 5.3872674107551566 4.5633616596460334 4.2729902267456064 6.2814495861530251 5.7804591059684718 5.4999652504920959 5.7683503925800306 7.750726044178009 5.1954491585493088 5.3546244353055954 4.5787893831729924 5.1217817962169647
leaf_count=28 21 27 27 32 24 25 27 33 20 24 20 20 27 26 25 26 33 23 29 20 24
internal_value=-0.0026934 0.0142744 0.00807895 -0.00462827 0.0211524 -0.0112219 -0.0156155 -0.0105219 -0.00394618 -0.00925476 -0.00202002 -0.00878864 0.00820371 -0.026445 -0.0111504 0.0137329 -0.0216106 -0.0348475 0.0374188 0.0260852 -0.0445771
internal_weight=122.26 40.8962 35.1564 24.5317 9.74216 81.3643 69.1838 58.8361 46.3159 41.6652 36.2779 31.7146 16.1612 15.5534 11.2804 12.1805 14.7895 12.5203 10.6248 10.8602 10.3476
internal_count=561 193 166 110 45 368 314 265 209 189 165 145 74 71 51 54 65 56 56 47 49
is_linear=0
shrinkage=0.05


Tree=29
num_leaves=21
num_cat=0
split_feature=25 13 22 9 30 1 27 26 23 23 12 1 36 19 19 32 27 23 30 18
split_gain=6.44694 4.2821 3.55012 4.82116 3.88824 3.94599 3.55923 3.09644 3.43093 8.7641 4.05858 3.93625 5.0885 3.40179 6.09594 3.76818 2.97972 2.54147 2.04574 1.90825
threshold=0.04155547449958321 -0.070103759726372575 0.36044999999999977 0.65151239925076754 0.25153176165839713 9.8576553249483414 0.015656588104252456 -0.048092873164900393 0.13461969696969697 0.10127878787878616 0.022866170086686052 6.2184767563474432 0.92857142857142605 -0.037300000000000548 -0.089900000000001631 60.531237129575238 0.027222239928607703 0.014422727272727151 0.17148428222180218 0.023500000000001353
decision_type=2 2 2 2 2 2 2 2 2 2 2 2 2 2 2 2 2 2 2 2
left_child=1 -1 3 4 6 -6 -2 -3 9 10 11 17 -13 14 -12 19 -10 -9 -5 -15
right_child=2 7 -4 18 5 -7 -8 8 16 -11 13 12 -14 15 -16 -17 -18 -19 -20 -21
leaf_value=0.026670468722619103 -0.011125705244737516 -0.048480254045383968 0.050476992809439326 0.01559872080337458 -0.041834386699600747 0.010750746453096285 0.049569962195004633 0.019639982685318448 -0.0071610901057569207 0.058325227278856008 0.012790103598505746 -0.070181942478701312 -0.0045768530304593378 0.01365656357133411 -0.061302370612339778 -0.014169886285093556 -0.057294963287922399 -0.029745828041305617 0.059963623999864525 0.057616273102066053
leaf_weight=6.984094724059104 4.6724785715341586 6.0773019343614569 5.6437280625104895 5.6044146642088872 8.799551382660864 6.0001603811979285 5.000034898519516 5.2738774120807665 5.2596952766180021 4.8372993767261496 6.2018405497074127 8.0808975696563703 4.6601596325635901 5.1334598511457497 5.0256975144147855 6.5187231749296179 6.7899624407291412 5.1479530185461044 4.8445773869752884 4.7557084113359451
leaf_count=31 21 29 27 30 37 28 24 25 24 21 27 38 21 24 23 30 30 24 26 21
internal_value=-0.00257937 -0.0107491 0.0136829 0.00773654 -0.00440298 -0.0205151 0.0202498 -0.0142921 -0.0112225 -0.00598357 -0.0121074 -0.0275446 -0.0461863 0.000831435 -0.0203753 0.0153427 -0.0354114 -0.00475456 0.0361681 0.0347968
internal_weight=121.312 80.7467 40.5649 34.9212 24.4722 14.7997 9.67251 73.7626 67.6853 55.6356 50.7983 23.1629 12.7411 27.6354 11.2275 16.4079 12.0497 10.4218 10.449 9.88917
internal_count=561 368 193 166 110 65 45 337 308 254 233 108 59 125 50 75 54 49 56 45
is_linear=0
shrinkage=0.05


Tree=30
num_leaves=22
num_cat=0
split_feature=24 10 12 10 14 10 10 25 5 35 38 38 8 18 5 32 37 10 35 8 16
split_gain=4.43834 6.62783 3.98739 3.21814 3.559 3.19784 4.86855 3.1274 5.13592 4.1569 3.72726 3.69319 3.20153 2.9199 4.60613 2.69376 3.13692 2.06389 3.23073 3.07623 1.29809
threshold=0.96072862951303961 0.68412789722589629 0.0026368008324916003 0.012842328574950551 0.23822949798992848 0.51116783245325703 0.39277107939486028 0.038368986819987259 0.13575980304261329 0.37097801847722306 0.21155309682706902 0.33333333333333243 0.46067491240611247 -0.12449999999999838 0.12052720312120811 29.009042896348593 0.19451951951951943 0.54656608672893736 0.69935273060273218 0.14046229794585494 -1.0000000180025095e-35
decision_type=2 2 2 2 2 2 2 2 2 2 2 2 2 2 2 2 2 2 2 2 2
left_child=1 5 -2 -4 7 6 13 8 11 -9 -10 12 -5 -1 15 -15 -17 19 -19 -11 -21
right_child=2 -3 3 4 -6 -7 -8 9 10 17 -12 -13 -14 14 -16 16 -18 18 -20 20 -22
leaf_value=0.0088580247664349007 0.056750305593979825 0.043887599959704315 0.048135595722252622 0.025706129187314315 -0.039910493661367688 -0.057685431474917975 0.036402154591858381 -0.027231014558681949 -0.0024018519614568256 0.011130193403974815 -0.050873931990461821 0.041746204533536724 -0.028117573080343468 -0.066014261807304339 0.0055065878333807839 -0.055943772799961704 -0.0028460354176011301 -0.019202414288888057 0.034952688904779802 0.035614233980206161 0.073747253523974682
leaf_weight=7.1427834331989244 4.0527348965406409 4.9107360988855353 4.2357592433691016 4.9774758666753787 4.470331445336341 4.430558204650878 4.4371961057186118 4.4185379892587688 8.5159655660390836 6.6855937093496349 7.4227769374847403 7.1969583481550208 6.2094068229198456 6.7464116513729193 7.5460886657237998 4.9469834640622121 6.3546666651964188 5.3728737682104093 5.6500605419278145 4.1866138353943843 4.7795152515172923
leaf_count=32 18 23 19 22 20 20 20 19 38 31 34 32 27 34 33 23 31 25 32 20 23
internal_value=0.00118109 -0.0110481 0.00845771 0.00581723 0.00325234 -0.0175324 -0.0127468 0.00620197 -0.00420353 0.0176882 -0.0249756 0.0138058 -0.00416933 -0.0194085 -0.027297 -0.0410126 -0.0260881 0.0251289 0.00855604 0.0368005 0.0559416
internal_weight=124.69 46.5154 78.1746 74.1219 69.8861 41.6047 37.1741 65.4158 34.3226 31.0932 15.9387 18.3838 11.1869 32.7369 25.5942 18.0481 11.3017 26.6747 11.0229 15.6517 8.96613
internal_count=576 216 360 342 323 193 173 303 153 150 72 81 49 153 121 88 54 131 57 74 43
is_linear=0
shrinkage=0.05


Tree=31
num_leaves=21
num_cat=0
split_feature=0 1 6 5 32 31 29 17 14 29 14 24 24 5 37 3 23 6 23 27
split_gain=5.00139 3.62829 4.13491 3.15737 3.44988 4.61284 5.10844 4.13331 3.01985 6.86601 4.26259 3.93737 4.28279 4.20568 4.67602 2.82941 2.81932 1.42165 1.24152 0.93975
threshold=-0.0012352867036304997 14.133920537211845 3.6185512426792297 3.4942482647063957 14.496447644120765 -0.88986434465645725 -0.12593526128983248 0.33841731265808639 0.022451937392252656 0.1138512462005838 0.0082923782161229021 1.5466443252557125 1.2027431912725171 0.61666154630539993 0.18696475625823497 2.3762235430728729 0.0090924242424239004 6.1597313243490488 0.014953030303030402 0.076696199392459766
decision_type=2 2 2 2 2 2 2 2 2 2 2 2 2 2 2 2 2 2 2 2
left_child=-1 2 3 4 -2 -6 -7 8 10 16 -8 12 13 14 -11 -16 -10 -4 -3 -13
right_child=1 18 17 -5 5 6 7 -9 9 11 -12 19 -14 -15 15 -17 -18 -19 -20 -21
leaf_value=-0.043429388124576605 0.039385443107587945 0.017278357970408831 -0.050359960185604104 0.045094311968757794 -0.042629528319730173 0.045110379304119909 0.0010536118589727687 0.034902682306523235 0.013854559221629582 -0.027423777600647927 -0.053512137990669596 -0.020120220056226257 0.032037974360602725 -0.042287575358906072 -0.00065691054249853581 0.04781749072935132 0.065169357697715188 -0.012672304665245627 0.057128382511562381 -0.052115446704539936
leaf_weight=5.9937320202589026 5.8579639941453925 4.1020919680595389 4.4932239353656751 4.4937652349472037 5.9836335480213156 6.5775615721940985 7.4978472739458066 7.3382654488086692 6.0984408333897573 8.0764732658863121 6.8479819446802139 4.3349579647183401 7.9177286624908438 7.2777168005704871 6.5292862057685834 5.5854589194059372 4.7705850303173065 5.6471785455942154 3.7332606166601181 4.8769073486328125
leaf_count=33 26 20 21 21 27 29 35 33 29 37 32 20 36 33 30 25 22 26 20 21
internal_value=0.00112713 0.00338957 0.00105216 0.00413528 0.00220938 -0.000218103 0.00281279 -0.000793288 -0.00454538 0.000743168 -0.0249934 -0.00794119 -0.000361236 -0.00970008 0.00204574 0.021692 0.0363774 -0.0293717 0.0362654 -0.037059
internal_weight=124.034 118.04 110.205 100.065 95.5708 89.7128 83.7292 77.1516 69.8134 55.4676 14.3458 44.5985 35.3867 27.4689 20.1912 12.1147 10.869 10.1404 7.83535 9.21187
internal_count=576 543 503 456 435 409 382 353 320 253 67 202 161 125 92 55 51 47 40 41
is_linear=0
shrinkage=0.05


Tree=32
num_leaves=24
num_cat=0
split_feature=0 1 8 19 18 38 38 38 11 7 27 8 25 15 10 14 25 29 27 2 37 23 7
split_gain=4.6072 3.32965 3.20216 3.53342 5.07892 3.58449 9.52856 3.71917 5.66696 4.0535 7.16616 3.39989 3.16479 2.95838 2.62246 3.81778 3.24136 2.22696 2.15675 2.1122 1.63179 1.39929 1.20306
threshold=-0.0012352867036304997 14.133920537211845 3.725485276844684 -0.12100000000000063 -0.063249999999999987 0.5407909905116618 0.39999999999999852 0.13492508052093363 0.65613461200825085 0.75257833260312024 0.068790016859462261 0.34650396685523238 0.020120074533126153 -0.28729341524369373 0.57357704152287736 0.12208140615583127 0.036895396270396112 -0.10068078983558938 0.13503768400148503 3.5493965140786945 0.25123112847663703 0.021201515151515152 1.6052041984868575
decision_type=2 2 2 2 2 2 2 2 2 2 2 2 2 2 2 2 2 2 2 2 2 2 2
left_child=-1 2 3 13 12 6 7 8 14 10 11 21 -5 -2 15 16 -6 -15 -12 -11 -19 -9 -3
right_child=1 22 -4 4 5 -7 -8 9 -10 19 18 -13 -14 17 -16 -17 -18 20 -20 -21 -22 -23 -24
leaf_value=-0.042156435414084703 -0.015578130792186902 0.015035564530978936 0.041139396595911898 -0.012094917607033335 -0.012027496176348259 0.041943316744714632 -0.059297698107409771 0.016604377771501692 0.040517095189163056 0.018600140307944352 0.059028122992774504 -0.055133113328281795 -0.067545884455733132 0.058730649930469593 -0.046005517098293404 -0.035269625985435801 0.044653575170296791 0.038539806332251555 0.013254258712004561 0.063355546267303386 -0.0043031767896912557 -0.023252444807328142 0.054503108935049206
leaf_weight=5.869184508919715 4.5702392607927349 3.8234751224517813 4.7543603330850592 5.5303110480308515 6.4730573743581861 4.6576398909091941 6.8746199905872336 4.4946174472570437 4.6649229452013961 5.6236325800418836 4.6478075832128507 4.8258108645677558 4.8121952414512634 4.7073629051446924 6.8026572763919821 8.2656912952661497 4.1325325593352318 4.264623880386349 5.765721395611763 4.9625694453716278 4.6413984298706055 4.3174382150173187 3.9006940871477127
leaf_count=33 20 20 23 27 28 22 33 20 24 25 21 22 21 20 32 36 20 20 26 23 20 20 20
internal_value=0.00107666 0.00323593 0.00100353 -0.000813199 -0.00500937 -0.000563823 -0.00331929 0.00260333 -0.0101784 0.0137988 0.00245096 -0.021398 -0.0378953 0.0192292 -0.0193897 -0.00979532 0.0100586 0.0309145 0.0336842 0.0395805 0.0162121 -0.00292334 0.0349666
internal_weight=123.383 117.513 109.789 105.035 86.8512 76.5087 71.8511 64.9765 30.3389 34.6376 24.0514 13.6379 10.3425 18.1836 25.6739 18.8713 10.6056 13.6134 10.4135 10.5862 8.90602 8.81206 7.72417
internal_count=576 543 503 480 400 352 330 297 140 157 109 62 48 80 116 84 48 60 47 48 40 40 40
is_linear=0
shrinkage=0.05


Tree=33
num_leaves=24
num_cat=0
split_feature=36 9 1 6 32 25 23 23 30 11 5 19 31 32 5 19 17 16 25 24 32 6 23
split_gain=3.88786 3.62335 3.53688 3.4429 3.43634 3.7711 5.43063 3.90272 5.01615 5.29217 4.56552 3.6931 5.55925 4.8453 4.07079 4.46817 3.91805 6.18201 4.13325 3.63219 2.87566 2.23823 1.21719
threshold=0.25639895998844336 1.7226179128151287 14.133920537211845 3.6185512426792297 12.572732592537816 0.037809530022129806 -0.091299999999999631 0.29157575757575832 0.24355827168334343 0.32101554518178849 0.64755518049207073 -0.10154999999999918 -0.15538912733947965 21.89461656119143 0.57500716292382381 0.029199999999999702 0.042208430959125152 0.016832041284222003 0.015172204870574703 0.99691476486494612 47.258415609173944 6.1597313243490488 0.014953030303030402
decision_type=2 2 2 2 2 2 2 2 2 2 2 2 2 2 2 2 2 2 2 2 2 2 2
left_child=-1 2 3 4 -2 6 -6 8 9 -7 20 13 19 -8 16 -16 17 18 -14 -13 -10 -5 -4
right_child=1 -3 22 21 5 7 11 -9 10 -11 -12 12 14 -15 15 -17 -18 -19 -20 -21 -22 -23 -24
leaf_value=-0.053454646182348242 0.046103421807294286 0.046108285017320783 0.014899569729930312 -0.057440346744705377 -0.063618999405661555 0.069452070908691432 -0.0073326665888948876 0.054880527002115077 -0.0059968966658511232 0.0019950962158457142 0.020987724356535543 -0.071474562632805438 -0.023333197847268259 0.057494414487115765 0.0054544248502961142 -0.05665554536020892 0.041378888671758651 -0.050529715928887553 0.041502830246299159 -0.011029738367897191 -0.058874424753828203 -0.0085892497665431191 0.054915118651467143
leaf_weight=3.188912406563758 4.0820981711149207 4.5777485519647589 4.0598358958959571 4.2273617535829526 4.1241296753287235 5.0489932447671908 6.6498360037803561 4.7121048867702475 5.1192197576165217 6.8550333753228188 6.4957888424396506 5.385191783308974 3.8536203205585711 5.0875389575958252 5.8444504886865598 5.739127054810524 7.2669932395219794 4.7594894617795935 6.7878148853778839 4.6155051738023758 5.1657734960317612 5.2650547474622726 3.5727669894695282
leaf_count=17 18 22 20 20 20 23 30 23 24 35 30 28 20 22 27 26 32 22 30 21 22 24 20
internal_value=0.00103018 0.00248662 0.000745923 -0.00159796 0.0011981 -0.00076219 -0.0082463 0.012709 0.00578146 0.0306064 -0.011829 -0.00416761 -0.0107811 0.0207665 -0.00120504 -0.0253182 0.0111171 -0.00316211 0.0180235 -0.0435782 -0.0325553 -0.0303446 0.0336306
internal_weight=122.484 119.295 114.718 107.085 97.5927 93.5106 60.1137 33.3969 28.6848 11.904 16.7808 55.9896 44.2522 11.7374 34.2515 11.5836 22.6679 15.4009 10.6414 10.0007 10.285 9.49242 7.6326
internal_count=576 559 537 497 453 435 278 157 134 58 76 258 206 52 157 53 104 72 50 49 46 44 40
is_linear=0
shrinkage=0.05


end of trees

feature_importances:
signal_ret=53
trend_spread=38
close_to_long=31
brick_red_len=27
ret1=27
red_len_vs_10d=26
body_ratio=25
ma10_slope_3=24
ma10_slope_5=24
MACD_DEA=24
signal_vs_ma5=23
lower_shadow_pct=23
ma20_slope_10=22
brick_green_len_prev=20
red_len_vs_5d=19
ret10=17
MACD_DIF=17
rebound_ratio=16
green_len_prev_vs_10d=16
KDJ_K=16
green_len_prev_vs_1d=14
ma20_slope_5=14
ret5=14
close_location=14
upper_shadow_pct=14
close_to_trend=13
trend_slope_10=13
ma20_slope_3=13
KDJ_J=13
trend_slope_3=11
KDJ_D=11
red_len_vs_3d=10
green_len_prev_vs_3d=10
green_len_prev_vs_5d=10
ma10_slope_10=10
RSI14=10
MACD_hist=8
trend_slope_5=6

parameters:
[boosting: gbdt]
[objective: binary]
[metric: auc,binary_logloss]
[tree_learner: serial]
[device_type: cpu]
[data_sample_strategy: bagging]
[data: ]
[valid: ]
[num_iterations: 500]
[learning_rate: 0.05]
[num_leaves: 31]
[num_threads: -1]
[seed: 42]
[deterministic: 0]
[force_col_wise: 0]
[force_row_wise: 0]
[histogram_pool_size: -1]
[max_depth: -1]
[min_data_in_leaf: 20]
[min_sum_hessian_in_leaf: 0.001]
[bagging_fraction: 0.8]
[pos_bagging_fraction: 1]
[neg_bagging_fraction: 1]
[bagging_freq: 5]
[bagging_seed: 400]
[bagging_by_query: 0]
[feature_fraction: 0.8]
[feature_fraction_bynode: 1]
[feature_fraction_seed: 30056]
[extra_trees: 0]
[extra_seed: 12879]
[early_stopping_round: 0]
[early_stopping_min_delta: 0]
[first_metric_only: 0]
[max_delta_step: 0]
[lambda_l1: 0]
[lambda_l2: 0]
[linear_lambda: 0]
[min_gain_to_split: 0]
[drop_rate: 0.1]
[max_drop: 50]
[skip_drop: 0.5]
[xgboost_dart_mode: 0]
[uniform_drop: 0]
[drop_seed: 17869]
[top_rate: 0.2]
[other_rate: 0.1]
[min_data_per_group: 100]
[max_cat_threshold: 32]
[cat_l2: 10]
[cat_smooth: 10]
[max_cat_to_onehot: 4]
[top_k: 20]
[monotone_constraints: ]
[monotone_constraints_method: basic]
[monotone_penalty: 0]
[feature_contri: ]
[forcedsplits_filename: ]
[refit_decay_rate: 0.9]
[cegb_tradeoff: 1]
[cegb_penalty_split: 0]
[cegb_penalty_feature_lazy: ]
[cegb_penalty_feature_coupled: ]
[path_smooth: 0]
[interaction_constraints: ]
[verbosity: -1]
[saved_feature_importance_type: 0]
[use_quantized_grad: 0]
[num_grad_quant_bins: 4]
[quant_train_renew_leaf: 0]
[stochastic_rounding: 1]
[linear_tree: 0]
[max_bin: 255]
[max_bin_by_feature: ]
[min_data_in_bin: 3]
[bin_construct_sample_cnt: 200000]
[data_random_seed: 175]
[is_enable_sparse: 1]
[enable_bundle: 1]
[use_missing: 1]
[zero_as_missing: 0]
[feature_pre_filter: 1]
[pre_partition: 0]
[two_round: 0]
[header: 0]
[label_column: ]
[weight_column: ]
[group_column: ]
[ignore_column: ]
[categorical_feature: ]
[forcedbins_filename: ]
[precise_float_parser: 0]
[parser_config_file: ]
[objective_seed: 16083]
[num_class: 1]
[is_unbalance: 0]
[scale_pos_weight: 1]
[sigmoid: 1]
[boost_from_average: 1]
[reg_sqrt: 0]
[alpha: 0.9]
[fair_c: 1]
[poisson_max_delta_step: 0.7]
[tweedie_variance_power: 1.5]
[lambdarank_truncation_level: 30]
[lambdarank_norm: 1]
[label_gain: ]
[lambdarank_position_bias_regularization: 0]
[eval_at: ]
[multi_error_top_k: 1]
[auc_mu_weights: ]
[num_machines: 1]
[local_listen_port: 12400]
[time_out: 120]
[machine_list_filename: ]
[machines: ]
[gpu_platform_id: -1]
[gpu_device_id: -1]
[gpu_use_dp: 0]
[num_gpu: 1]

end of parameters

pandas_categorical:[]
